layers 7
layer 0 Flatten
layer 1 Dense
31 200
[-0.11853841 -0.10965767  0.07631932  0.11732741  0.07508798  0.08055736
 -0.09901895  0.05528811  0.12264642 -0.0918382  -0.04059578  0.14257447
 -0.02778998  0.12528338  0.10999752  0.02121778 -0.10706723 -0.07026605
  0.08311018  0.01347388 -0.04176813 -0.06926636 -0.12870267 -0.03497706
 -0.15712702 -0.12798923 -0.13471949  0.05368178  0.14466034 -0.15795673
 -0.1365776   0.00812173  0.02055787 -0.04966525 -0.06119996  0.06782332
  0.10934059 -0.12939718 -0.03583775  0.05619739 -0.07637188 -0.01667791
  0.06595028 -0.12920767 -0.0168915  -0.00555331 -0.15221535 -0.10123739
 -0.16636945  0.0562254   0.0483822   0.05446966  0.07156051  0.02091503
 -0.0837694  -0.1438876  -0.05033837 -0.1477965  -0.00329681 -0.1206053
  0.12761776  0.01036485 -0.09976809  0.02145469 -0.08403268  0.01375252
 -0.13036653 -0.0162383   0.04991198  0.04387345 -0.16322127  0.04899513
  0.10887814 -0.11006002 -0.01617899  0.14519076 -0.04107457  0.13438523
  0.01694045  0.09382332  0.11185291 -0.03829321 -0.10163993 -0.00994557
  0.02556092 -0.11013158  0.07851826 -0.04980244 -0.04158468 -0.05574072
  0.07708198  0.01305291  0.10124306  0.01465857 -0.10183307  0.04834517
  0.08307247 -0.15932335 -0.11931577 -0.11175083 -0.12480024 -0.11180276
 -0.14944601  0.03089612 -0.11722827  0.06424876 -0.16080932 -0.05154913
  0.05525707 -0.07938934  0.03195248  0.1500004   0.09948225 -0.08489827
  0.05735671  0.0901074   0.08006901 -0.12499116  0.06567014 -0.12624241
 -0.13254146 -0.10262353  0.03371415  0.04166757  0.03301556  0.02548224
 -0.0962292  -0.12373981  0.03002084 -0.05074707 -0.03287158 -0.14160915
 -0.04947558 -0.07374051  0.16235377 -0.02898634  0.08777153 -0.01254899
  0.1378895  -0.1125113  -0.02959022 -0.06097268  0.09972163  0.02654993
  0.07553209 -0.08509086 -0.10304178 -0.00230166 -0.10791216  0.02579002
  0.06606576 -0.14939739  0.01054998 -0.03199013  0.1295025   0.02269102
  0.12492871 -0.10662255  0.0519234  -0.08832758 -0.16016434 -0.01297729
  0.07634056  0.03359644  0.0602867   0.10273737  0.05210065  0.05252658
 -0.00305666 -0.05762759 -0.03578608 -0.02731484 -0.0070274   0.1298207
  0.02435245 -0.05394507 -0.10487156  0.13834035 -0.01792051  0.0888409
 -0.14656103  0.11519468  0.10991357 -0.04929931 -0.09395649 -0.08085722
 -0.01622141 -0.0124278  -0.02390335 -0.05689169  0.11716779 -0.01688604
  0.02128936  0.04653537  0.11733677 -0.00125412  0.12662861 -0.08437273
  0.01872976 -0.12899697]
[-0.02447238 -0.0390066   0.0481001  -0.06951386  0.06715128  0.04749304
  0.1357918   0.01689478  0.1494585   0.01767126 -0.08406435  0.06651929
 -0.07754912  0.09003351 -0.03636322 -0.13644114 -0.12703253  0.04104032
 -0.0500312   0.03259823 -0.16234198  0.11594941 -0.07427906  0.00459507
 -0.05193384 -0.04526604  0.13885713  0.02436497 -0.0266034   0.0939538
 -0.06325683 -0.15326063  0.12334312 -0.16458625  0.1271371   0.07717745
  0.01306694  0.03195111 -0.03994067  0.01709167 -0.01180128  0.08687708
  0.05016427 -0.05377463 -0.11707991 -0.00025163 -0.0437071  -0.03940872
  0.12984028  0.10131335 -0.05245513  0.08424895  0.09019101  0.12152362
 -0.06937612  0.0316728  -0.1107012   0.06798176 -0.08030981 -0.12117855
 -0.1581067  -0.04185902 -0.12663592 -0.1158231   0.0104641  -0.10047743
  0.14206135 -0.08142342  0.0980408   0.04737314  0.06347577 -0.12268217
 -0.14046203  0.15128273  0.13809384  0.05280603  0.01404201 -0.01319798
 -0.08928469  0.05854076  0.0027849   0.07767943 -0.03294601 -0.12362981
 -0.16296405  0.0953026  -0.15680794 -0.10153501  0.0225522   0.01211462
 -0.11401562  0.07350061 -0.17312142  0.03705299 -0.01714881 -0.14048214
 -0.02519972  0.03253717  0.04671265 -0.02916479 -0.06625075 -0.12114845
 -0.02635318 -0.12054895  0.15263003  0.11160991  0.02787583 -0.14195177
  0.09834519 -0.00781138 -0.02754617  0.13767156  0.01736638 -0.07596979
  0.08252694 -0.12085004  0.13675499 -0.01784574 -0.1161368  -0.07580212
  0.09146796  0.11540429 -0.02241488  0.05771815 -0.07029868 -0.09709363
  0.02346846  0.01953428  0.14198464 -0.08342873  0.02191759 -0.045027
  0.13319011  0.07034513  0.0752516   0.11355753  0.1358308  -0.08607893
 -0.08529925  0.15540463  0.00943742  0.0865312   0.13503467 -0.06905048
 -0.0200744  -0.06669207  0.11961892 -0.07921015  0.00607846  0.03582885
 -0.02146022 -0.11289996  0.04489145 -0.10381256 -0.03737047 -0.07860731
 -0.0160118   0.10095046  0.01352839 -0.01709577 -0.12564941  0.05626651
 -0.09918012  0.10141358  0.0365001  -0.11820535 -0.14359769  0.13503395
  0.064524    0.01946403  0.06579323 -0.01880125  0.13910255  0.04109782
  0.15171932  0.04941905 -0.00263552 -0.12458152 -0.0872579  -0.12594803
  0.15276839 -0.02810725  0.06357896  0.14213103 -0.1439444  -0.04891216
 -0.0925341   0.00393289 -0.03806612 -0.07953587  0.10528509 -0.04131038
 -0.08758079  0.0218382   0.1324617  -0.09914546  0.17130445 -0.15359537
  0.08909921  0.0253108 ]
[ 0.10724125 -0.0458992  -0.11040729 -0.10132255  0.05413734  0.15316834
 -0.0478888   0.07581089 -0.01580098  0.1273579  -0.08459323  0.02728179
 -0.15301245 -0.13088977  0.07053033  0.00516926 -0.02805726  0.12390787
  0.07371059  0.14343421 -0.09635637  0.00067631  0.01374464  0.10806063
  0.07908105 -0.06195989 -0.15303938  0.15050942  0.11635112 -0.02171976
  0.02875024 -0.02199076 -0.14699979 -0.06819949 -0.10001557  0.14237107
 -0.03605266 -0.06145373  0.0367463   0.10189496  0.04055702  0.0329786
  0.01751626  0.14573002  0.16321331  0.14987643 -0.13913245  0.12895812
 -0.06569892 -0.00127786  0.0326216   0.14545329  0.10861875 -0.160334
 -0.05416403 -0.16327597 -0.02697995 -0.1502617  -0.11932605  0.05813707
 -0.12740588 -0.02774639 -0.09051158 -0.01382387 -0.03525269  0.10698835
  0.17247401 -0.04445221 -0.11181874  0.09316059 -0.03675379 -0.07163928
 -0.12272015  0.08282975  0.16385707 -0.00020613  0.08472795  0.03252685
  0.05275403 -0.10777505  0.17478001  0.04938745 -0.09048536  0.0354626
  0.14499578  0.04327475  0.13124792  0.05525145 -0.13558424 -0.08019885
 -0.01807068  0.06186587 -0.16734576 -0.14404145 -0.04938301 -0.11219966
  0.10109042 -0.12273566  0.12469041 -0.16852073  0.06007016 -0.08778116
  0.02378608 -0.02525694  0.12395225 -0.14867634 -0.12774795 -0.11320651
  0.03852094  0.15305018  0.0059148  -0.1666757  -0.17100382  0.03080099
 -0.09035408  0.05383884  0.00632016  0.0588296   0.08066427  0.00330677
 -0.05488105 -0.04627269 -0.07081173 -0.1020738  -0.00101793  0.15625782
 -0.0368771  -0.06648045  0.00689893 -0.05191621 -0.12894881  0.02015182
  0.14579761  0.1376403   0.0040092   0.06177579  0.09014668 -0.08699873
 -0.00922516 -0.15426987 -0.10544509 -0.06432491 -0.10848244  0.03636105
  0.08374894 -0.00458378  0.02622727 -0.14030066  0.02728261 -0.11720357
  0.12634669 -0.07853887  0.07202475  0.0440314  -0.10589308 -0.06538657
 -0.098525   -0.09867015 -0.09800855  0.04559385 -0.14313279 -0.00537359
  0.09863551 -0.11850023 -0.09990053 -0.08440005  0.13840649  0.05031108
 -0.01008082 -0.02402823 -0.05699313  0.12108784  0.09856301  0.05518079
  0.14850341 -0.06111867 -0.01158988  0.13749295 -0.09061333 -0.02740666
 -0.11166808 -0.05185197 -0.02651453 -0.14065443 -0.13497244  0.03328446
  0.065982   -0.09525898 -0.14665498 -0.11193559 -0.10383087  0.05729071
 -0.11398858 -0.12308649  0.05296857  0.04294322 -0.05660055  0.02278543
  0.1341464   0.09714416]
[-3.19752581e-02 -6.82349643e-03 -9.68029648e-02  6.76888824e-02
 -4.86657880e-02 -5.79351187e-02 -7.48004392e-02  6.13628365e-02
 -6.24025874e-02 -3.81805860e-02 -1.14478376e-02  1.46019012e-01
 -3.82506065e-02  6.37263358e-02  8.92880186e-02 -1.48237854e-01
 -7.04720616e-04 -1.20682947e-01 -1.06430568e-01  8.59631673e-02
 -1.22605607e-01 -5.23996130e-02 -5.32239042e-02 -9.28063765e-02
  1.37808487e-01  9.63281468e-02  7.96589404e-02 -4.12814096e-02
  2.67517753e-02  1.15681469e-01 -4.60589617e-05  1.70891359e-02
  1.40481591e-01 -1.74207019e-03  4.88389581e-02  8.16501305e-03
 -5.32107987e-02  1.02605365e-01 -3.46524827e-02  1.67927682e-01
  4.77233902e-02  1.33635908e-01 -1.26353621e-01 -1.31312400e-01
  1.59780130e-01 -9.04023275e-02  7.88279530e-03 -1.30293250e-01
 -7.18083382e-02 -6.68696314e-02  1.37972713e-01 -1.50088146e-01
 -2.09711436e-02  1.02223113e-01  7.28052035e-02 -9.14570540e-02
  5.68092316e-02 -7.39479065e-02 -1.52903423e-02  9.99085084e-02
 -2.57006120e-02 -1.44124910e-01  1.63854808e-01 -3.79023664e-02
 -6.08191714e-02 -1.00379862e-01  4.75314930e-02 -3.21941935e-02
  5.66517841e-03  1.11037187e-01  1.35818124e-01  7.13264048e-02
  1.35325208e-01 -1.45967156e-01  1.52316853e-01 -2.62590125e-02
  4.32105782e-03 -9.12823007e-02 -1.19553171e-02 -1.10932812e-01
 -6.87342435e-02  1.33404657e-01  9.63656753e-02  4.16573100e-02
  2.39725932e-02  1.25086745e-02 -1.09376781e-01  7.09288195e-02
  2.44051870e-02 -8.30741450e-02 -7.92604312e-02 -5.69054065e-03
  1.14892252e-01 -1.27064705e-01 -1.37876019e-01  1.67045500e-02
  2.12888736e-02 -1.67992324e-01  7.35706687e-02 -4.08786684e-02
 -6.00728802e-02  8.76294624e-04 -9.69050825e-02 -6.33341447e-02
 -4.16689180e-02 -8.98115709e-03  7.70952106e-02  1.22658432e-01
  4.14569341e-02  1.23793865e-03 -8.56051594e-02  1.18665107e-01
 -6.11607619e-02  1.15534551e-01  1.21532671e-01  3.27082388e-02
  6.97598904e-02  3.35282907e-02  1.43148705e-01  1.77859947e-01
 -1.40263647e-01  1.75111853e-02 -8.10442939e-02 -4.13370784e-03
 -8.07291642e-02 -1.51164055e-01  3.22897695e-02  7.16291964e-02
  1.44996360e-01 -1.61521077e-01  9.50424895e-02  7.87496790e-02
 -2.63641868e-02 -4.02405038e-02  2.09226180e-02 -3.76860648e-02
  4.55028564e-02 -1.01630948e-01 -8.70058909e-02  3.50556634e-02
 -1.12272218e-01 -6.48132190e-02  1.38922289e-01 -5.33021726e-02
  2.40676962e-02 -3.91000472e-02 -1.35272473e-01  1.16361655e-01
 -1.45084754e-01  1.78140420e-02  1.63175222e-02  2.99105532e-02
  2.26559807e-02 -2.77609136e-02 -1.34681379e-02  4.22385558e-02
  1.69600010e-01 -5.22646159e-02 -9.36787128e-02 -3.29261497e-02
 -1.54428827e-02 -6.86700037e-03  5.30226752e-02 -6.20173141e-02
 -1.64546192e-01 -8.93826187e-02 -6.12000301e-02 -1.40634105e-01
 -1.33135423e-01 -6.79019243e-02 -1.76629145e-02  1.70876607e-01
 -1.16939716e-01  9.73372459e-02 -9.50385779e-02 -1.19285129e-01
  4.15057912e-02 -1.96505822e-02 -1.02702543e-01  6.87821535e-03
 -6.18722774e-02  1.39991000e-01  1.08883739e-01  3.43855098e-02
 -2.76858546e-02  3.00453808e-02  1.23664245e-01  1.17458060e-01
  7.21078785e-03 -1.51490211e-01 -2.69475654e-02 -6.50187880e-02
  1.17025919e-01 -1.23099938e-01 -7.79033899e-02  6.32096380e-02
 -6.70818463e-02 -4.99627888e-02 -1.03865623e-01  3.72455195e-02]
[-1.27044499e-01  1.04850389e-01 -9.30346549e-02  1.66138690e-02
 -1.29081279e-01 -1.32623717e-01 -9.90080982e-02 -6.83134841e-03
  2.46897358e-02  1.36676461e-01  1.18675813e-01  1.24008313e-01
  1.20535955e-01  6.33501187e-02  1.31461352e-01 -6.77514896e-02
 -2.46416451e-03 -1.16594858e-01  5.81067838e-02  1.08566552e-01
  3.78999561e-02 -3.47673334e-02 -5.39535321e-02 -2.73641702e-02
 -3.90266664e-02  1.08838126e-01 -1.43952176e-01  7.28059039e-02
  4.97697433e-03 -1.56448960e-01 -4.43078838e-02 -7.55271167e-02
  1.30203903e-01 -8.23882744e-02  1.44339800e-01  7.42009655e-02
  1.69707611e-01 -1.40609175e-01 -1.19594812e-01  1.04110166e-02
  6.55760244e-02 -1.31509766e-01  5.67469485e-02 -7.52163306e-02
  5.54720573e-02  5.67891262e-02  7.20192939e-02 -8.41492265e-02
  1.29367635e-02  1.83588695e-02  9.34720188e-02  5.70300967e-02
 -4.00846712e-02 -5.92441037e-02  2.87392437e-02 -2.09418647e-02
  1.11100338e-01 -1.04604334e-01 -9.15113017e-02 -4.05818149e-02
  6.90005571e-02  2.26193527e-03 -4.28925082e-02 -8.95965938e-03
  4.84293588e-02 -1.21242918e-01  1.00922145e-01  1.18621841e-01
  1.03844954e-02 -1.06907703e-01  1.47082051e-02 -5.57382628e-02
 -9.20669176e-03  1.25121906e-01 -3.48363332e-02  1.06148817e-01
 -6.56506605e-03  1.21793345e-01  1.39898136e-01 -7.94634447e-02
  1.58378392e-01  9.22117457e-02 -3.41734923e-02  1.58938348e-01
  1.26811862e-01  1.48446247e-01 -9.33718458e-02 -1.20597072e-01
  1.39603183e-01  1.34568691e-01  6.25177100e-02 -6.56592846e-02
 -1.67556450e-01  9.54080522e-02  1.33701876e-01  1.23599302e-02
  6.48280755e-02 -1.10273547e-01 -1.50992244e-01 -7.74994120e-02
  3.92155088e-02 -5.31737205e-05  1.09866455e-01 -8.48723277e-02
  1.85297581e-03  1.36025518e-01 -2.19453722e-02  1.01754569e-01
 -4.98373695e-02 -1.30089790e-01 -1.32274687e-01 -5.19012287e-02
  9.03088376e-02 -9.72519144e-02  1.27150446e-01 -9.94715616e-02
 -9.84111205e-02 -3.09651084e-02 -6.71095327e-02  1.72292471e-01
  1.12085957e-02 -3.46413404e-02 -1.40334323e-01  8.38555843e-02
 -1.85798872e-02 -8.84136409e-02  2.63986234e-02  1.12364404e-01
 -1.34226486e-01 -1.42249987e-01  6.27007335e-02 -1.25034433e-02
 -1.47402048e-01  1.46840826e-01 -1.01665959e-01  1.28719294e-02
 -1.30740196e-01  1.34970741e-02  3.87563780e-02 -5.59925027e-02
 -1.57214906e-02 -2.40765810e-02 -9.28133819e-03  9.72889736e-02
 -1.25058830e-01  7.98358619e-02 -1.47297364e-02 -1.47384882e-01
 -8.39693323e-02 -2.46046521e-02 -1.18020758e-01  1.44412220e-01
 -3.99676803e-03 -3.99992876e-02  2.01942846e-02  3.80183235e-02
  4.13856097e-02 -1.20582968e-01 -1.16713926e-01 -4.20935862e-02
 -1.42183885e-01 -1.72043785e-01 -2.59758569e-02 -3.41720954e-02
  7.51142800e-02 -1.55475989e-01  6.61378652e-02 -1.53844729e-01
 -3.32670547e-02 -1.16387554e-01 -1.27646178e-01  3.69425863e-02
  2.38190293e-02 -1.21182062e-01  1.64177090e-01 -1.14183448e-01
  1.32739514e-01 -8.19202065e-02  5.57455234e-02 -7.37627745e-02
  5.96965365e-02  1.08739972e-01  1.26543075e-01 -1.06505215e-01
 -1.96956703e-03  1.31378457e-01  2.18848996e-02  6.94647878e-02
  1.16426744e-01 -3.67065072e-02  8.17596167e-03  1.39843635e-02
  3.28010432e-02 -1.08847529e-01  1.17262304e-01  2.39836313e-02
  1.28484488e-01  1.56323075e-01 -5.05312830e-02  8.94653127e-02]
[-6.70892596e-02 -1.00612320e-01 -3.24443765e-02  1.21929929e-01
  4.21087593e-02 -9.27974582e-02 -4.92347889e-02  1.14102423e-01
  2.73757335e-02 -6.14030063e-02 -1.11911409e-02 -5.44621050e-03
 -2.77379714e-02  7.63291493e-02 -9.58567187e-02  1.56924754e-01
 -5.20366952e-02 -1.40414953e-01 -9.51514542e-02 -1.42000109e-01
 -1.40273020e-01 -1.41945228e-01 -1.50167411e-02  6.55746609e-02
  1.12132542e-01  6.07858552e-03  1.40357763e-01 -1.35290157e-02
 -1.11247122e-01 -1.07061833e-01  9.58876386e-02 -1.53468668e-01
  9.19111893e-02  9.93913636e-02  1.06450640e-01  1.25081658e-01
  1.16255693e-01  1.54737413e-01  1.00282736e-01 -8.43936652e-02
  7.26236254e-02 -1.47521123e-01 -1.36039793e-01 -5.98867908e-02
 -1.03489913e-01  1.55687798e-03 -1.04989037e-01 -9.10998210e-02
 -8.21215957e-02 -9.35838297e-02 -3.24520729e-02 -7.77687430e-02
 -1.19979441e-01 -1.60042539e-01  8.87446627e-02 -1.11449718e-01
 -7.59300292e-02  3.09244683e-03  2.99741514e-02 -1.18068330e-01
 -4.90113050e-02 -7.67839253e-02  7.42752552e-02  3.43613885e-02
  1.06387205e-01 -7.22771650e-03  9.27622542e-02  1.63709790e-01
  1.22353233e-01  1.05836906e-01 -1.61322758e-01 -1.18929353e-02
  7.23656043e-02 -1.28134817e-01 -1.20630592e-01 -1.38363242e-02
  1.05216466e-01 -4.82928827e-02  9.26928967e-02  6.83897883e-02
  9.82250571e-02  1.16995372e-01 -1.23074248e-01  8.88294280e-02
  9.38443467e-02  1.34294927e-01  1.39124349e-01 -2.75121238e-02
  9.15162265e-02 -7.57100731e-02  1.26532510e-01 -8.13959341e-05
 -1.54637396e-01 -3.37663293e-02  1.31266443e-02  1.48674846e-01
 -6.52119666e-02 -1.46829396e-01  1.30806100e-02 -1.60852656e-01
 -8.06882381e-02 -1.14092343e-01 -3.00276373e-02  1.01617143e-01
  1.40241832e-01  8.45091641e-02 -1.23485923e-01  7.11238012e-02
 -4.03792225e-02  5.14326505e-02 -3.53931217e-03 -1.18352450e-01
 -4.63326536e-02 -1.33836314e-01 -1.24907263e-01  8.48727375e-02
 -1.17416307e-01  5.90054095e-02  1.38321921e-01  7.72438720e-02
 -9.37995166e-02  1.36260733e-01  3.12334560e-02 -1.04281239e-01
  5.51586747e-02 -9.41033065e-02  1.05968080e-01 -1.37933791e-01
 -9.22939628e-02 -2.56999154e-02 -8.25873986e-02  1.07516296e-01
 -3.72801498e-02  8.09463486e-02 -3.15364823e-02  3.52446511e-02
  1.54756397e-01  1.30123362e-01 -1.40798777e-01 -9.43526700e-02
  7.32972007e-03 -1.32164642e-01  3.94511335e-02 -3.23029533e-02
 -4.69681956e-02 -1.14167832e-01 -5.19682020e-02 -1.26144603e-01
 -4.08813953e-02  1.48998588e-01  2.26152446e-02  4.83819377e-03
 -1.22983672e-01 -1.29220501e-01  1.25564918e-01 -8.40759557e-03
 -1.23194888e-01 -1.25162601e-01 -1.37439370e-01  1.42044639e-02
  8.88135135e-02 -1.06716320e-01 -1.01605788e-01  6.83962181e-02
 -6.62892237e-02 -8.92029479e-02 -1.47707164e-01  5.05735492e-03
  7.71546513e-02 -1.03351124e-01  3.54526453e-02  1.74275309e-01
 -1.03216492e-01  1.96585748e-02 -1.23726809e-02  1.92216400e-03
  2.51685083e-02 -7.42437840e-02 -4.04658318e-02  1.67448968e-01
  1.15204476e-01  3.22265290e-02 -1.11001156e-01 -1.55876195e-02
 -8.28935653e-02 -1.23234622e-01 -7.41051733e-02 -1.46499693e-01
 -1.96915641e-02 -9.42828432e-02  9.69788060e-02  9.02878940e-02
 -9.59354192e-02 -1.18296422e-01  1.47157684e-01  1.06742434e-01
  5.13769500e-02  4.68364991e-02  1.33507267e-01  1.13349259e-01]
[-0.07824378 -0.1252898   0.10702834  0.0085314  -0.10723522  0.00254028
 -0.14684576 -0.00352139 -0.11370782  0.02491412 -0.11823659 -0.13122031
  0.09028566 -0.09165346 -0.02023672 -0.11118769 -0.07929324 -0.17079847
 -0.10875551 -0.14899398 -0.13963063 -0.0748171   0.03127846 -0.06459229
  0.10751516  0.06674561  0.08076652  0.12963471  0.04231849 -0.15568076
  0.06059542 -0.09863362 -0.13142452  0.0410185   0.11922846 -0.00762165
 -0.01622169  0.11977869  0.02093818 -0.00815775 -0.02693785  0.11054672
 -0.11974346 -0.14963771  0.07346848 -0.05955301 -0.03907997  0.11243411
  0.07386606  0.12910436 -0.13764285  0.05123885 -0.08936699 -0.15541862
  0.06829108  0.11366511  0.05782124  0.1435872  -0.05809799  0.08702619
  0.12067614 -0.1259374   0.12478232  0.06038615 -0.03329469  0.10103928
 -0.08597641 -0.15435198  0.08581447  0.12992418 -0.07004616  0.09782588
  0.10087883 -0.11883871  0.10180791  0.13199772 -0.14914022 -0.01424246
 -0.15005285 -0.0847451   0.01581047 -0.12657174  0.08829115 -0.12073667
 -0.04151554  0.14223114 -0.09395294  0.13850951  0.1300543   0.13995165
 -0.05296592  0.06607366 -0.03134499 -0.07309718  0.02190118 -0.09299226
 -0.08965843  0.05179722  0.04017152 -0.03724911 -0.11670579  0.05896286
  0.06431075  0.00035114 -0.02036156 -0.1162393  -0.1056829  -0.07823813
  0.1147278  -0.1461758   0.03913053  0.12195246 -0.15638104 -0.04916859
  0.05263493 -0.10330204 -0.00909202  0.07761809  0.01419031 -0.06212128
  0.13270508 -0.10219394  0.11322892 -0.05317434 -0.12736298 -0.14822358
 -0.05313824  0.08657165 -0.01208208 -0.01324258 -0.15064473 -0.0374755
  0.1597055  -0.11812797  0.07788941 -0.12143242 -0.0586437   0.0180356
 -0.06427357  0.05033096 -0.01744969  0.10984872 -0.08071895 -0.1202075
 -0.09019683 -0.12244333 -0.04456745  0.05054064 -0.03743786  0.14924495
  0.14839104 -0.10064249  0.07539289  0.08957073 -0.04245941 -0.16387208
  0.03404039  0.04365502  0.10383846  0.06503605 -0.08605734  0.09850688
  0.083168   -0.00497325 -0.16322424  0.0608624   0.14926524 -0.15594229
 -0.05093439  0.12157089  0.08436671  0.1363106  -0.06868245  0.07447399
  0.05494832  0.03756511  0.10338046 -0.0787168   0.14380975 -0.10469935
  0.01640175 -0.05612549  0.05781545 -0.12149282 -0.03369286 -0.14128591
 -0.03356324  0.12351245  0.15941219  0.11735918  0.04731105 -0.06005928
 -0.12955855 -0.11746382  0.12528646 -0.12623502 -0.13435097  0.11706033
  0.07972541 -0.07624533]
[-0.06837104 -0.01729806  0.07559165 -0.00811976  0.0370539   0.1139086
  0.1271644  -0.04526715  0.13252719 -0.06423383  0.02379554 -0.1536795
 -0.07773709 -0.07937185  0.14967437 -0.04698211 -0.16278507  0.00908273
  0.109076   -0.15067837 -0.1446876  -0.13004208 -0.00073558 -0.06357774
  0.08075555  0.10492473  0.08949036 -0.13028917 -0.00917066  0.15068747
 -0.06543288  0.1437347  -0.04672539  0.07877713  0.08418299  0.09860259
 -0.03103974 -0.05373652 -0.13865378 -0.06603471 -0.00605612 -0.01557319
 -0.13789178  0.02835066  0.060259    0.10440563  0.05783746  0.16385905
  0.00945632 -0.05099246  0.1631653  -0.14716011 -0.12121531 -0.13333714
  0.11072749  0.00118821 -0.00958198 -0.12469545 -0.09972581  0.03760818
  0.04835441  0.03327047  0.10103237  0.04244152 -0.13437442  0.05350494
  0.03180275  0.0789187  -0.10388756 -0.06800181  0.08154659  0.08082311
  0.16495515 -0.13854381  0.06723383  0.12582953  0.01598404 -0.05259361
 -0.06496074 -0.13245739 -0.08701868  0.06243442 -0.02609859 -0.09783795
 -0.15183806 -0.03473009  0.08901402 -0.03860919  0.13363181  0.12976637
  0.0295614   0.1489281   0.12386034  0.0186524   0.15283354  0.02509392
 -0.02523236 -0.12128388 -0.15310074 -0.0336803  -0.06561424  0.14360233
  0.07482766  0.05424568  0.15704268 -0.09234491  0.1078351  -0.09328685
  0.10329735 -0.05384663  0.0907506  -0.07328478 -0.11875995 -0.07317168
  0.14138722 -0.05888414 -0.11490693 -0.13327128  0.14121406 -0.05436405
 -0.00412415  0.14837159  0.09980676 -0.03571082  0.10495045  0.15118247
  0.13104196 -0.03712     0.11499989 -0.09248432  0.05506457 -0.05200586
 -0.04153816 -0.11426015  0.14180258 -0.02068413  0.0443874   0.01239119
  0.02531277 -0.12280498 -0.04336238  0.07287008 -0.01511319 -0.14459492
 -0.1522025   0.12221856 -0.14702599  0.06233482  0.10749462 -0.1042119
  0.16419986  0.10691524  0.0139801   0.11295371 -0.02368337 -0.00688595
  0.077616   -0.13827632 -0.13560487  0.11300652  0.07455067 -0.15775466
  0.04566621  0.07094195  0.10771655 -0.13218231 -0.03423026  0.04736617
  0.16723174 -0.14424862  0.03116124 -0.02638225  0.06580184  0.15120348
 -0.08575547 -0.00442438 -0.12920943  0.04583953 -0.13719307  0.01639187
 -0.11065874  0.12169958 -0.09723978  0.00481073  0.09782743 -0.12246975
  0.11130308 -0.12393744 -0.10475245  0.13336442 -0.05191816  0.0754028
 -0.01311204  0.04329553 -0.08635201 -0.0538061  -0.08443188  0.07119886
  0.10316899  0.09026501]
[ 0.08249057  0.15198715  0.09004487 -0.03034086 -0.13411868  0.09488594
  0.07550518  0.02115913  0.05528878  0.00922855 -0.07526071 -0.00657235
  0.15355149  0.09212939 -0.14796084  0.09457251 -0.03895847 -0.0098366
  0.14246075 -0.1231223  -0.0777392  -0.11856785  0.11711791  0.05447422
 -0.14256953  0.10177113  0.10785735  0.05067334 -0.05445558  0.07057063
  0.05115233  0.03813741 -0.00615381 -0.09075452  0.02228143 -0.02867986
  0.10583292  0.03491835 -0.09547489  0.05430971  0.03792465 -0.11936814
 -0.10767453  0.1236269  -0.02681744 -0.02611325  0.0262477   0.00714438
  0.04531954  0.06733435  0.14047866 -0.03204063  0.01704132  0.11119527
 -0.08096037  0.10726781 -0.17363924 -0.11808658 -0.10210513  0.03611583
  0.07748531 -0.10079867  0.06769824  0.08386004 -0.14174704 -0.13081549
  0.08120247  0.06020142  0.10826771  0.03230142 -0.0662451  -0.02251706
  0.10979246  0.14300555 -0.01833465 -0.09720547  0.13493104  0.01533558
 -0.14571437  0.11264732  0.00661735  0.07436368  0.08392281 -0.09177297
 -0.16321649 -0.08413605  0.1490187  -0.04063281 -0.11148987  0.03192152
 -0.12127567 -0.0584935  -0.17542599 -0.04120949 -0.10580045  0.10404431
  0.15219146  0.04112086 -0.05144145  0.1338866   0.01882055  0.15224004
 -0.00342165  0.1129648  -0.06530242  0.04086945 -0.19410148  0.0835302
 -0.09471739  0.08098324  0.04401826  0.04875415  0.09892774 -0.08913058
  0.043056   -0.11151711  0.04918395 -0.07501566 -0.01947858  0.18307084
  0.01807534 -0.15811865  0.06381682  0.07513653 -0.06492788 -0.13085656
  0.10106084 -0.16297497  0.09718345 -0.05555464 -0.16141433 -0.10580429
 -0.15443163 -0.08430871 -0.06367291  0.1374269   0.08856822  0.04167164
  0.13078429  0.10158089 -0.08461133 -0.0895341  -0.04028763  0.07893439
  0.14935912 -0.09487187 -0.12694821 -0.0681986  -0.03708681 -0.10238926
 -0.11058903  0.10586708 -0.09291065  0.09629468 -0.1699182   0.0154955
 -0.03628549  0.07762332 -0.14610316  0.07347172  0.09609363 -0.1246402
 -0.09562735 -0.04469135  0.06105807 -0.01121957 -0.10661468 -0.03137286
 -0.08419597  0.02763771  0.08669253  0.090028    0.13710847  0.1422535
 -0.04506967  0.11167036  0.07042816  0.15976496 -0.08966134 -0.01212115
 -0.1380084  -0.03286308 -0.06197613  0.12531735  0.11785813  0.10423514
  0.00437748 -0.02004744  0.02509226 -0.05515352  0.14841028 -0.10286156
  0.02963687 -0.07015956  0.15031888 -0.00620165 -0.11338253  0.09638998
 -0.07118841  0.05616523]
[ 0.11570336  0.02497026  0.1175672   0.01441978  0.11826149 -0.07369708
  0.0688067  -0.15160361  0.16835518  0.05776698  0.09635597 -0.0617158
 -0.05440094 -0.01040727  0.00790765 -0.01654401  0.04481536  0.06966318
  0.06585267  0.1268183  -0.14473443 -0.07588217 -0.15234846  0.11782224
 -0.01662502  0.14603256  0.08387981  0.01797181 -0.1501035  -0.15159413
  0.05892661 -0.07972661 -0.09086596 -0.09237766  0.12413321 -0.08868343
  0.12195738 -0.08169197  0.1373768   0.00963702  0.09580239  0.0885058
 -0.034509    0.00583083 -0.0343149  -0.12318426 -0.15499704  0.05679415
  0.10042083  0.05871677  0.05656815  0.10134668 -0.08024813 -0.05383425
 -0.06225245  0.07531371  0.08929115  0.08457957  0.01504981  0.0980126
 -0.03530694  0.01729483  0.05706987  0.04047916 -0.02058701  0.10303745
  0.11563307 -0.07280881 -0.04021823  0.06490234  0.08590836  0.00861246
  0.14939556 -0.0363713  -0.08170865  0.06564579 -0.15688701  0.07525611
  0.10564641  0.15164456  0.09353355  0.00681791  0.04533853  0.14614168
  0.09786407 -0.14943294  0.07787142 -0.0037666   0.13555494 -0.11000064
  0.04936469 -0.09568161 -0.1021317   0.12444674 -0.00777287 -0.00660869
 -0.00576224 -0.12962304 -0.12744556 -0.06539889  0.04406415 -0.05331483
  0.04382189 -0.09637979 -0.11112358  0.10837214 -0.0055987   0.05807963
 -0.07941148  0.14636204  0.01376239 -0.06452958 -0.0289022   0.07689076
  0.0169062   0.08329189  0.14256342  0.02026258 -0.00038393  0.13523638
 -0.0632348   0.01053542 -0.06774092 -0.13905787 -0.14094266 -0.14450927
 -0.09912565  0.0305462   0.08908261  0.03937704 -0.14356208  0.15481836
 -0.0223179   0.0833637   0.02550145  0.06930465  0.14500818  0.05184726
  0.10153571 -0.09689419 -0.06765899  0.09852997  0.11521822  0.05951475
  0.09054688  0.06362328  0.04777288 -0.15085818  0.06877785 -0.06789546
 -0.10033735  0.04985704 -0.01104917 -0.16587968 -0.0633195  -0.12901974
  0.09870954 -0.11525865  0.12812358 -0.13816066  0.1360962  -0.11366523
 -0.1186949   0.13345242  0.04410499  0.1388038   0.08906461 -0.0864988
  0.1561693   0.01293734  0.04390382 -0.06714112  0.10974737 -0.03621358
 -0.1270646   0.01651531 -0.07677405  0.07519984  0.00477352  0.02154125
  0.06788372  0.10892029 -0.09267617 -0.11745616  0.16135238 -0.00556859
 -0.1019545  -0.04588096 -0.08362022 -0.03429365 -0.04798608 -0.02756925
  0.00886764 -0.05707682 -0.02363014  0.00445614  0.1366864  -0.04349245
  0.1065132   0.00857308]
[-1.04488507e-01  4.16002683e-02 -4.98680808e-02  1.48653716e-01
  1.00223713e-01  1.23023704e-01  4.85364757e-02 -1.41397730e-01
 -3.58745344e-02  1.20506898e-01 -9.56794843e-02  1.01125151e-01
  7.49478340e-02  1.25076175e-01 -1.37959167e-01 -1.24789007e-01
  1.50307074e-01  7.40156174e-02  1.46374673e-01  8.06958560e-05
  1.07736856e-01  1.53054371e-01  1.58523992e-01 -1.22870721e-01
 -1.05249502e-01 -8.81152079e-02 -1.18708521e-01  2.09264532e-02
 -6.21163622e-02 -1.24611512e-01  9.66467708e-02  4.63327207e-02
 -9.98831168e-02 -1.37393788e-01  7.44572803e-02 -1.31469861e-01
  7.07769170e-02  1.44238397e-01  1.27195522e-01 -4.83282693e-02
 -1.26810938e-01 -3.34583521e-02 -1.52984306e-01  1.28976569e-01
  9.43486169e-02  2.54007485e-02  1.33094132e-01  7.91082066e-03
 -1.61075830e-01  2.71612089e-02 -1.24570556e-01 -1.25674620e-01
 -3.59232090e-02  9.59922746e-03  7.72768408e-02  6.33257031e-02
 -1.05352722e-01  1.05134688e-01 -1.50409058e-01 -1.28932580e-01
  1.08123444e-01  5.92050850e-02  1.24169238e-01  1.35028571e-01
  1.41437411e-01 -8.11669677e-02 -1.43828467e-01 -9.23092738e-02
 -6.66507408e-02 -3.54682654e-02  4.68650386e-02  9.73160863e-02
  1.34340972e-02 -1.79987904e-02 -3.46701071e-02 -8.82868543e-02
  1.31355986e-01  4.89409044e-02 -3.87242027e-02  1.56657770e-01
 -1.11896940e-01 -1.22922689e-01  5.40688820e-02 -3.76129989e-04
 -1.20015487e-01  5.49636409e-02  1.50425494e-01 -1.37169093e-01
 -9.41945091e-02 -8.58439431e-02 -9.07931551e-02 -1.24690115e-01
  1.36778280e-01  1.70864873e-02 -5.35160676e-02  1.01968981e-01
 -1.51437968e-01 -1.36421844e-01  1.01367682e-01  1.24726057e-01
  7.06592649e-02 -1.11710876e-01 -4.61470149e-02 -7.67337531e-03
 -1.43722937e-01 -2.05385927e-02 -3.26009728e-02  1.18003534e-02
  8.47144797e-02  1.23953789e-01 -1.87104009e-02 -8.51617083e-02
 -2.08332445e-02  1.06765524e-01  8.88431966e-02 -2.53376495e-02
 -4.43791263e-02 -8.74833539e-02 -1.28607213e-01  1.35480553e-01
 -2.32653730e-02  7.12182671e-02 -1.76560357e-01 -4.11545895e-02
 -1.60329714e-01 -1.08093351e-01 -2.76380102e-03 -9.57080945e-02
  8.25480968e-02  2.80270036e-02 -4.15267833e-02 -1.61584929e-01
  8.54200721e-02 -7.62696713e-02  8.54701102e-02  9.43851769e-02
 -6.84938803e-02 -1.13437317e-01  3.54378447e-02 -1.24608345e-01
  1.73187740e-02 -1.64603129e-01  7.93223083e-02  4.07184102e-02
  1.49101689e-01  4.13232148e-02  5.61192557e-02  1.48470715e-01
  3.56911235e-02 -9.41741914e-02  1.52807847e-01  1.24798223e-01
  5.72275296e-02 -1.28460936e-02 -1.68312341e-01 -1.55148178e-01
 -4.98674624e-02 -1.06656060e-01 -1.11246049e-01 -2.03205384e-02
  1.08547337e-01  4.22232859e-02  9.41959172e-02 -1.08325735e-01
  1.36833459e-01 -9.40895006e-02  1.02088332e-01 -1.52703553e-01
 -5.25303334e-02 -2.91908830e-02  8.88956860e-02  1.49154320e-01
  4.98227812e-02 -1.52305678e-01 -1.06987558e-01  3.44704799e-02
 -1.21760018e-01  4.39412035e-02  1.43086508e-01  1.22065999e-01
  9.12246779e-02 -7.78251663e-02  8.51809308e-02  9.83345509e-02
  8.29164237e-02 -1.54654741e-01  3.73025388e-02  1.09376423e-01
  8.72439593e-02  1.03274118e-02 -3.09729651e-02  2.18584202e-02
 -1.05772980e-01  1.17005341e-01  1.40142962e-01 -6.77476600e-02
 -8.73476863e-02  1.27529964e-01 -1.26576796e-01 -9.35749933e-02]
[ 0.02214667  0.16098152  0.00585895  0.05266345  0.16598502  0.00983127
 -0.03347293 -0.04030093  0.16679877  0.10743046  0.14124276  0.1496858
 -0.07295275  0.08054402  0.09471948  0.00976274  0.04404426  0.09818249
  0.04036298  0.12941    -0.04199996  0.098479    0.00216148 -0.09102385
  0.14951329  0.13064528 -0.05894541 -0.05391764 -0.06517807  0.04958436
 -0.07604479 -0.06295075 -0.05740261 -0.0542586   0.06654704  0.00323737
  0.16704813 -0.0196036   0.02256937  0.06410173 -0.15732911  0.15950902
 -0.04346538 -0.1569818   0.15210897  0.10593259 -0.13109468  0.03004273
  0.01563433  0.08425542  0.0762899   0.02518084 -0.07977297  0.12224018
  0.09721341  0.02021792 -0.03039526 -0.08375135  0.13919806  0.13137996
 -0.08213702  0.13493825 -0.12318331  0.15504777 -0.17044713 -0.12843932
  0.11256331 -0.05582286 -0.09816495  0.04180247 -0.04610689 -0.15505564
 -0.14287384 -0.02827047  0.07460379  0.0275011  -0.07992341  0.14191501
  0.04158244 -0.05927622  0.07167685 -0.02599555 -0.06524096  0.01111367
 -0.05891022 -0.13446093  0.15212111  0.10701474  0.15005298  0.14759338
  0.05971908  0.04821142  0.11110069 -0.02491651 -0.16005205  0.12412296
 -0.0753703  -0.07079457  0.08672372  0.07360106 -0.12166565 -0.13115452
 -0.15152806  0.03179849  0.01905162 -0.15575558 -0.03522185  0.0751453
 -0.09510342  0.07733389 -0.06578684  0.04646778 -0.12819555  0.06202365
 -0.04660425 -0.03800929 -0.03719482  0.14052603 -0.11115536 -0.04116703
  0.07299358  0.03604547 -0.1186587   0.10618732 -0.01223271  0.04389687
  0.06916808  0.14384797  0.14406155  0.04471879  0.14087953 -0.05505237
  0.08190984 -0.14268005 -0.13156253 -0.0510146  -0.10357181  0.00624461
  0.03264173  0.1193272   0.10468771  0.0720233  -0.10295273 -0.13329309
 -0.1489722  -0.06722511  0.09107277  0.10704495  0.00528301  0.15797095
 -0.04107326  0.07594104 -0.05261154  0.09039383 -0.02276636 -0.15510887
 -0.01340458  0.04181626 -0.06413404 -0.11846323 -0.00642369 -0.05427957
 -0.11831764 -0.1461751  -0.17096637  0.02194116 -0.01210819  0.11599836
 -0.01445676  0.10076737 -0.1572607   0.11326633 -0.06853624 -0.06957612
  0.00591093 -0.08829538 -0.05514872  0.1134605   0.031279    0.12382993
  0.05938224  0.08958708  0.14256941  0.02457722  0.04743998 -0.02006865
 -0.02649315 -0.08052399 -0.14596915  0.13459362 -0.1284969   0.058955
 -0.14897412  0.16054924  0.14419897  0.04527431  0.00950897  0.02454719
 -0.05730876 -0.07810013]
[-0.16430283  0.11198584  0.11739876 -0.1068596   0.09071255 -0.06031436
  0.05600042 -0.03746514 -0.12561734  0.12387634  0.05340744  0.08659256
  0.09507696 -0.00682188 -0.11433537  0.04204052  0.09176416  0.04600179
 -0.11460095  0.01992538 -0.09439582  0.02006943  0.0406193  -0.13457869
 -0.01861331 -0.0809865  -0.05601431  0.12824985 -0.09222849 -0.01944789
 -0.05710405  0.07658558 -0.08514676  0.11241632  0.11280815  0.04795957
 -0.12836063 -0.09408356 -0.04296738 -0.035918   -0.1500042   0.06924512
  0.09936378  0.01672999 -0.12433669  0.05724702 -0.10969348 -0.07569717
 -0.12229932  0.07359641  0.11393175 -0.1458832   0.04443048  0.15503408
 -0.1542211  -0.04779157 -0.17020121 -0.01932621  0.11742901  0.02113934
 -0.04439147  0.14247358  0.17251447 -0.03428291 -0.06852539  0.09740947
  0.13879761 -0.07549448  0.03445044 -0.07336033 -0.09727552  0.02988281
 -0.05294322 -0.05475483  0.02520424  0.01793947  0.04339401  0.06982607
  0.15058768  0.09861811  0.00471157 -0.02201191  0.00761573 -0.09870865
 -0.0336955   0.10012966 -0.09147602 -0.1557556   0.14852574  0.12417923
  0.16306359  0.11786562 -0.02617593 -0.12417585 -0.12670979 -0.1010536
  0.02646243 -0.14808846  0.14188068 -0.05521386 -0.03698947 -0.14635372
  0.09226374 -0.14767534 -0.01746603 -0.02029679 -0.16278484 -0.07215534
 -0.04682798 -0.0115798  -0.03556773 -0.10171262 -0.05004602 -0.10300712
 -0.05022115 -0.07322348 -0.01699649  0.13849418  0.09575358  0.18465506
 -0.0644661   0.05728992 -0.03192746  0.04605367 -0.06158703 -0.08417454
  0.04447164 -0.08790105 -0.15288408  0.12675114  0.1467937   0.14103734
  0.05218866  0.09231587  0.00737237 -0.00587765 -0.01013391 -0.13748612
 -0.02655598 -0.00087071 -0.09264471 -0.07391964  0.05913945 -0.15385234
  0.03025266 -0.17855042 -0.11475287  0.14022496  0.048966   -0.02452515
  0.07058322  0.09015231 -0.02971522 -0.01073305 -0.10703213 -0.10014916
  0.08238088  0.02173206 -0.14803158 -0.03310532 -0.1027159  -0.1707412
  0.06782191  0.07625617  0.06291831  0.15559296 -0.07838165 -0.12317808
  0.16060084  0.06560748  0.00872333  0.00893078 -0.0710168   0.09471395
  0.06102256 -0.16348594 -0.00058016  0.02406279 -0.15298112  0.11713391
  0.06301293 -0.01383791 -0.05774581 -0.03580033  0.11776008 -0.05721197
 -0.00224875  0.08060472 -0.0194152  -0.12874152  0.1131821  -0.1088875
  0.09734073  0.16137794  0.09033637 -0.0946096  -0.03394139  0.0822002
  0.0917514   0.00705908]
[-0.0502418   0.01478314  0.01787842 -0.11966287 -0.11371119 -0.03791282
 -0.02427743  0.01934695  0.07887448 -0.14604968 -0.02219446  0.10876307
  0.10768385 -0.10602232 -0.12445585  0.03721344  0.13321757 -0.0240484
  0.03037527  0.1277398  -0.11172011 -0.04700184 -0.02387206 -0.04856198
 -0.12728998  0.15739912 -0.1021931   0.00419318  0.1076459   0.08250419
  0.05869539  0.13345455 -0.10234188 -0.03361555 -0.01770921  0.13347344
 -0.09883094  0.12394591 -0.07474443  0.01829503 -0.09309888 -0.12027561
 -0.02184343  0.10717957 -0.02289148  0.16008094 -0.14541575  0.06583306
  0.04600323  0.03507166 -0.00984393  0.04874069  0.08541092  0.05695942
 -0.09159137  0.10406394 -0.02047353 -0.07503135 -0.08330386  0.01042153
 -0.12873445 -0.08282585  0.01757781  0.04269542 -0.10359287 -0.08596008
  0.1228146   0.12018824  0.04198407 -0.11367387 -0.16259961  0.069078
  0.07112461  0.02017133  0.08778229  0.0155792  -0.11058843  0.07478953
 -0.0168695   0.11737235  0.03768298  0.14276904  0.05038472 -0.07995732
 -0.0383311  -0.14285313  0.02050694 -0.00309064  0.13205169  0.15863195
 -0.04422376 -0.06130571 -0.1566631  -0.07439663 -0.08017889  0.0971292
 -0.14675526 -0.05788534  0.08805002 -0.11399634 -0.09474995  0.11301406
  0.0561375  -0.12903826  0.06819749  0.14793403 -0.05134373  0.06682067
  0.03304984 -0.08470803 -0.06330258  0.05666931 -0.12976292  0.11368892
 -0.13107087 -0.09747751  0.10373224  0.12422562 -0.06738243 -0.08478574
 -0.02921244 -0.16734852 -0.11211276  0.09077188 -0.13031027  0.11251016
  0.0134118  -0.06937514  0.13012263 -0.07638906  0.05980735 -0.01543323
 -0.06372272  0.08577804 -0.144101   -0.08234854 -0.01465612 -0.02585372
  0.06330897  0.14605707 -0.05040725  0.07594951  0.08822837  0.07300031
 -0.01916165  0.03689291  0.0479101   0.15479843  0.11586321 -0.04495988
 -0.03721093  0.12305709 -0.12782067  0.0857707   0.06047271 -0.15080789
 -0.07028679 -0.01922665 -0.09134211 -0.14787492 -0.07194769  0.05374392
 -0.01880563  0.09907068 -0.07629933  0.12036093  0.00101528  0.13965409
  0.11368826 -0.02642152  0.0727592   0.14337857 -0.15039977 -0.06345692
  0.09547448 -0.05809616 -0.11914098  0.04785285  0.05463982 -0.07930245
  0.04753849  0.10722011  0.12556605 -0.02980813 -0.1381226  -0.03213051
 -0.11348781 -0.01202073  0.11404093 -0.04026755  0.08472054 -0.04736944
  0.03401059  0.16751328 -0.09874658  0.13841718 -0.12650068  0.01750083
 -0.02083099  0.03181   ]
[-0.0265916  -0.08212237  0.06398805 -0.04150135  0.00807426 -0.08699463
  0.01285034 -0.0488898  -0.10168844 -0.05058875 -0.14090894  0.07042121
 -0.15265408  0.00567073 -0.03769206 -0.02440293  0.00216957  0.0162289
 -0.11626399 -0.10885315  0.0793445  -0.00802631  0.06290005 -0.11778869
 -0.12896888 -0.12311617 -0.0449325  -0.02171995  0.00025018  0.08159757
  0.12544397  0.12864503  0.0400469  -0.02519276  0.11143414  0.06338955
 -0.08890254 -0.0740127  -0.09011659  0.04270867 -0.15812762  0.10960395
  0.14707673 -0.02522907  0.08135388 -0.06162407 -0.04518621 -0.09687754
 -0.10994525  0.06021446 -0.08684111  0.07281967 -0.04204065  0.14296253
 -0.13819087  0.01649922 -0.17401318  0.01554958  0.09317951  0.10787674
 -0.1006943   0.06370129  0.10917178 -0.03924901 -0.14536329  0.13954403
 -0.11434701  0.0646906   0.12414266 -0.13962609  0.10114967  0.11071549
 -0.00506567 -0.10640931  0.05591896  0.01984704 -0.11433408 -0.1316537
  0.10755343  0.02994643  0.07718829 -0.11132548  0.0707281  -0.08808434
  0.01372454  0.13940816 -0.10097498  0.12197448  0.11084516 -0.06831013
 -0.08710252 -0.09900311  0.07382967  0.10932592 -0.0053806   0.10295098
 -0.02528114 -0.03230814  0.12794639 -0.10137184 -0.05313335 -0.13847081
  0.11433329  0.00170886  0.10392275 -0.15213227 -0.09257388  0.13079257
 -0.02209153  0.10657993  0.03799491 -0.12307317 -0.00293588  0.0548233
  0.04843825  0.02944827  0.02406444  0.1623432  -0.05033143 -0.0702588
  0.08436326  0.12541792  0.03041056  0.16351819 -0.01963818  0.14616092
 -0.10366463 -0.0256571  -0.08090183  0.06040923 -0.05227019 -0.05414157
 -0.13093224 -0.07270375  0.03226751 -0.06679618 -0.0107238   0.11717457
 -0.00454255 -0.11929542 -0.10483224 -0.12328587 -0.00220206 -0.07843538
 -0.03983733 -0.05998249 -0.01144671  0.09658299 -0.14917065  0.02835797
  0.09945815 -0.07446637 -0.09259417 -0.08695177  0.1019954  -0.04885783
  0.00407779 -0.1085257  -0.03090013 -0.08188823  0.1049713  -0.07176212
 -0.12194151 -0.04889628  0.14782599  0.03470614  0.09014552  0.07038236
 -0.11671641 -0.07379574  0.04906803 -0.04548035  0.11972636  0.12199492
 -0.08573731 -0.12442002  0.16445251  0.13597108 -0.02333364  0.04153713
  0.15915106  0.14984092 -0.01090243  0.16252954  0.00270074 -0.14345783
 -0.11930001 -0.06035758  0.07506024  0.12249269 -0.12580086 -0.13250533
 -0.03231238 -0.11881351  0.16070935  0.0466292  -0.10587325 -0.10557365
  0.14429575 -0.1336106 ]
[-0.15911947  0.11696185 -0.13388526 -0.06499421  0.15611719  0.10640666
 -0.0085962   0.10772178 -0.03665081  0.09775179  0.10243039  0.04115291
  0.12175975  0.06007102  0.10584123  0.03156036  0.15146674  0.13568838
  0.04829263 -0.00699346  0.05395047 -0.13518766  0.12874058 -0.11616845
  0.03877494 -0.01003669 -0.00714265 -0.05771029  0.04163283  0.00526877
  0.05356985 -0.13053131 -0.05791658 -0.07824785  0.15468514  0.10189696
 -0.11362316  0.13153607 -0.05984953  0.15026689  0.11318238 -0.10078037
  0.03815245 -0.06927226  0.07975814  0.03720079 -0.07000978 -0.09660251
 -0.06636425  0.12912372  0.06897371 -0.10807908 -0.00970167  0.12420607
  0.1536002  -0.08265463  0.06415184 -0.01771614  0.10652293 -0.04784336
  0.0377667   0.15213057  0.05043352  0.0942698   0.03148427  0.03986786
  0.03819235 -0.04422457 -0.09750856  0.01881224 -0.12973645 -0.12049328
  0.04398494  0.09727404 -0.05236242  0.07147942 -0.04022093  0.14640422
 -0.06967238  0.0377559   0.1530152  -0.08231775  0.08479864 -0.07837322
  0.13587382 -0.01509414  0.14483486  0.09816688  0.03327373 -0.08747011
  0.04729788 -0.08718173  0.04793217 -0.14151222  0.15829295  0.07447682
 -0.08654508  0.09940059  0.10854954 -0.14881352 -0.06965138  0.15469487
  0.02411317  0.16183436  0.01812529 -0.10884926 -0.15022582  0.10051015
 -0.13975522  0.12335134  0.13831578 -0.07169963  0.01252762  0.00583958
  0.13612652 -0.02352014 -0.07672996  0.14888759 -0.10121784 -0.03404841
 -0.01507589  0.03912174 -0.17360988 -0.02160932  0.08424658  0.09939273
 -0.14232256  0.04413978 -0.06157179 -0.1664719  -0.06752571 -0.15178625
 -0.05156629 -0.10912742  0.10000549 -0.01776519  0.14878866  0.09609162
  0.07470673  0.01855638 -0.16592295 -0.01660025 -0.0216115   0.03673874
 -0.11632577 -0.08505659  0.0166826   0.13633645  0.14788608  0.14607683
  0.00434084 -0.10962342 -0.14668438 -0.12857512 -0.09799275 -0.13801026
 -0.05023086  0.08198962 -0.05728738  0.11830668 -0.09741267  0.03674302
  0.05882471  0.09482411 -0.14798957  0.06213244 -0.13864355 -0.00114053
  0.04620038 -0.00076536  0.03094341 -0.01746568 -0.14210725  0.08164924
 -0.04919203  0.13594738 -0.1133469   0.13351448  0.05878836  0.1175796
  0.09325691 -0.02383276  0.04175388 -0.09731118  0.13095067  0.03705057
  0.06128059 -0.02469887 -0.01367949 -0.14997038  0.12113912  0.00437167
 -0.0560641   0.13365562 -0.05603328  0.10618638  0.07435747  0.11214733
  0.04719565  0.0793767 ]
[-0.09134728  0.11954613 -0.00082691  0.03603676  0.03816166  0.03501793
  0.01368723 -0.07096315  0.11085012 -0.02799853 -0.08502311  0.1063535
  0.10924187 -0.11543526  0.06122676  0.02026179  0.11505315  0.10958031
 -0.11409893  0.05416708  0.10078    -0.0822793   0.10188235 -0.00379877
 -0.08799494 -0.03865235 -0.11605822  0.13652973  0.15892093 -0.1323754
 -0.09104595 -0.09900753 -0.07234366  0.13217464  0.01213075 -0.00059038
 -0.00434841 -0.09316009 -0.03754052  0.06190795  0.02547958  0.12326708
 -0.12681083 -0.1518844   0.07063258 -0.10404202 -0.11701383 -0.00072544
  0.07598481 -0.0350864   0.03168139  0.08533923 -0.13714989 -0.01557661
  0.11506557 -0.02527383 -0.09871829 -0.02053429  0.06438322  0.04531705
 -0.09331689 -0.03546232  0.17153078  0.00556042  0.08728236  0.09107914
  0.09513178  0.03918883  0.01774759  0.01506577 -0.06332318 -0.04701669
 -0.13608335 -0.09609406  0.13004468  0.15057328 -0.1359816   0.03342021
  0.03637696  0.08572138 -0.08442051  0.01833839 -0.00825917 -0.03049809
  0.02020003  0.10864969 -0.12575662 -0.00568724 -0.13516276 -0.03189325
  0.03999887 -0.13787778 -0.00278698 -0.09790543 -0.0351201   0.04667488
 -0.05311316  0.09524611 -0.02245722 -0.149454   -0.15121612  0.13147707
  0.15641516  0.09809726 -0.04201381 -0.07580873 -0.01600981 -0.00119573
  0.07463495 -0.15634158 -0.08734918 -0.16619827 -0.10266906  0.02727695
  0.14813916 -0.03568025 -0.04010402  0.07625642  0.16729388  0.0149806
 -0.03517314 -0.00636619 -0.04823091  0.01778376  0.09404793  0.00689143
  0.14998293  0.01961713 -0.09423031  0.03717745  0.0715709  -0.08931012
 -0.01399105 -0.11823846 -0.10999743  0.05984822 -0.12034723 -0.12130486
 -0.07836775 -0.00288931 -0.08850256  0.02528386 -0.15755542  0.14145337
  0.07075077 -0.09434316 -0.14192022  0.13777505  0.15166502 -0.08102673
  0.00502417  0.15875024  0.06231326 -0.04169152 -0.03549026 -0.05983811
 -0.06214282 -0.09444206 -0.08868577 -0.05762019 -0.09186748 -0.0335791
 -0.05438411 -0.15083997  0.11612847 -0.14407563  0.12881356  0.1295112
 -0.08841179  0.0473082  -0.08898596 -0.05565212  0.02575937 -0.15773548
 -0.00678353 -0.15091144 -0.01429394  0.16107996 -0.06556453  0.10341419
  0.1401832   0.12826519  0.0309769   0.0615645  -0.09868954  0.08898849
 -0.08201779  0.09770202 -0.02372562 -0.03271779 -0.07456227 -0.09218568
  0.1319448  -0.00793267 -0.01239796  0.11771464  0.0477755   0.13029303
 -0.06375366  0.04143976]
[ 1.20087251e-01  1.29229307e-01 -1.06443867e-01 -1.05553620e-01
 -1.31340355e-01 -6.98444769e-02 -4.42721474e-04  1.15286022e-01
  3.17612924e-02 -5.69438748e-02 -5.83584979e-02  5.55662625e-02
  7.89494719e-03 -1.54857486e-01 -1.42503738e-01  6.03189506e-02
  5.19946665e-02  8.96054655e-02  9.65708047e-02  1.45163938e-01
  2.48050578e-02  2.22228710e-02 -2.54038125e-02 -1.67315960e-01
  1.16142459e-01 -5.02351783e-02 -8.96104798e-02 -1.44660830e-01
  1.24702267e-01  6.51766658e-02 -1.68174691e-03 -1.20068148e-01
  5.14343977e-02  3.83153223e-02 -1.07441477e-01 -1.16238154e-01
 -1.39563009e-01 -8.50714892e-02 -1.12699367e-01  9.11283350e-05
  2.26049833e-02 -1.29129618e-01  3.71997766e-02  9.77685899e-02
 -2.67357249e-02  6.03931360e-02  6.51464090e-02 -4.31761853e-02
  1.57929361e-02 -6.95123672e-02  7.02884654e-03  7.15314671e-02
  1.65712714e-01  1.17827684e-01 -1.07203268e-01 -2.51391865e-02
  7.58722872e-02  8.04367065e-02  7.69629478e-02 -3.71232219e-02
 -1.56005416e-02 -9.75912586e-02 -1.36402726e-01 -1.52881101e-01
 -1.22983567e-01  1.11708291e-01  1.21593058e-01 -7.20787346e-02
 -2.52741575e-03  1.48253977e-01  9.61479247e-02  1.37195319e-01
  1.30973905e-01 -1.39948696e-01  7.03789592e-02 -4.39271219e-02
  1.14535809e-01 -5.13279205e-03 -4.28132638e-02 -1.23641253e-01
 -2.77947728e-03  9.91664901e-02 -9.03365761e-02 -4.79112603e-02
  1.00751497e-01  1.26962498e-01 -9.56750438e-02 -4.31899503e-02
  5.71155883e-02  1.23484321e-02  5.75055555e-02  6.18986860e-02
  1.42139643e-01 -7.89107531e-02  8.50750804e-02 -2.10477654e-02
  2.80442610e-02 -1.53031707e-01 -1.10595413e-01  1.37600020e-01
  1.08959921e-01  3.88339814e-03 -1.55300364e-01 -1.60147086e-01
  1.07160799e-01  1.37093884e-03  1.58089489e-01 -1.63162112e-01
  5.62944114e-02 -4.30112407e-02  4.84559759e-02 -8.13034847e-02
  2.50274427e-02 -7.98473433e-02  7.93468654e-02  1.33397669e-01
  1.25546843e-01  3.09390705e-02 -3.45332175e-03 -1.22406147e-01
  3.02447379e-02  5.62014580e-02 -1.02445418e-02 -1.61125422e-01
 -5.51865213e-02  1.08318053e-01  1.04494095e-01  1.31704643e-01
 -5.89213930e-02  6.62808791e-02 -1.12565495e-02  1.62641272e-01
  9.45897773e-03  4.67384122e-02  1.24012500e-01  4.14126366e-02
 -1.31251648e-01 -2.51070764e-02  9.09637660e-02 -7.19181299e-02
  9.78917852e-02  1.18837073e-01  5.73406555e-02 -2.21660342e-02
 -1.37515351e-01 -4.26308140e-02 -4.67730016e-02  1.44347027e-01
  5.84548414e-02 -1.32682830e-01 -8.36423486e-02  7.53857801e-03
 -6.98292404e-02  8.26551169e-02 -4.66634445e-02  9.83088464e-02
  1.00834392e-01  1.12800337e-02  1.47509336e-01  9.80799720e-02
  1.47007748e-01  9.15681794e-02 -1.50806338e-01  1.59096658e-01
  1.87480357e-02 -1.45857617e-01  1.57439753e-01  4.86250147e-02
  3.03929523e-02 -1.90907493e-02  1.09091841e-01  4.66377325e-02
 -1.49926707e-01 -1.14022277e-01 -4.77302670e-02  1.08444639e-01
 -1.40184104e-01  9.55262557e-02  1.98697150e-02 -3.87547463e-02
  1.55250847e-01 -7.41861900e-03  1.09495513e-01  4.54894789e-02
 -1.57342345e-01 -7.02739730e-02  9.11675021e-02 -1.44792929e-01
 -5.57665676e-02  9.06925090e-03  1.00025877e-01 -7.35633075e-02
 -9.99366790e-02  3.34551111e-02 -2.85069533e-02 -1.47028163e-01
 -1.70823082e-01 -9.89180133e-02 -9.77068767e-02  6.12041242e-02]
[-0.10809702 -0.00078239  0.03211556  0.03504089  0.05364959 -0.1467604
 -0.10331605  0.13045682 -0.09141539 -0.02610252 -0.14040777 -0.03746018
 -0.05008274 -0.09126046 -0.17945294  0.17081764 -0.1300271  -0.10438651
  0.0922743  -0.05712378  0.04852488 -0.12028096 -0.06719562  0.10396936
 -0.01648812  0.03397926  0.04874521  0.01512689 -0.07707805 -0.05713388
 -0.00183408 -0.12079406  0.11928077 -0.07007878  0.06852486 -0.08439968
 -0.12037993  0.04317418  0.16258915 -0.03111894  0.00224745 -0.01244685
 -0.07155895  0.04754509 -0.03616431  0.01171214 -0.09620637  0.09561284
  0.17920595  0.10922308  0.03546353 -0.11706667  0.16113135 -0.12636235
  0.00281294  0.10691088  0.01807976  0.10393919  0.12412556  0.02146202
 -0.10487394  0.02622221 -0.02435334 -0.14769436  0.00144473 -0.15495522
  0.14430442 -0.04247006 -0.00706792 -0.03968677  0.13297378  0.12099009
 -0.1806368  -0.07972306  0.04597689  0.06761103 -0.10888082 -0.0613615
 -0.03930402  0.02798606  0.12063068  0.14764787 -0.03986644 -0.14347346
 -0.13717942 -0.01755448 -0.12280351  0.13378029 -0.01271637  0.10781129
  0.10264333 -0.10290112  0.06670351 -0.15636244  0.00966754  0.12966408
 -0.10721774 -0.03295207 -0.0765294   0.15214735 -0.08674497 -0.11114557
 -0.03148157 -0.06278378  0.17002253 -0.11868686  0.13293134  0.02223535
 -0.03468391  0.11568969 -0.00625217 -0.08486909 -0.00226484  0.13888371
 -0.11004783 -0.06739452  0.06003012 -0.09359973 -0.02371082 -0.0605122
 -0.0875831   0.13347644 -0.11278691 -0.11427855  0.05133281 -0.03956008
  0.01594859  0.18016806 -0.04110414  0.07986189  0.10348614  0.03733853
 -0.16315207 -0.14673987 -0.15141092 -0.01693532 -0.02610611 -0.06050844
  0.08786893  0.09846476  0.03170514 -0.11296792 -0.05544506 -0.06297668
 -0.14171836 -0.03159811 -0.10084151  0.05862605  0.16870508  0.15429485
  0.11235916 -0.03909693  0.0995541   0.13865879 -0.02386168 -0.01522942
 -0.00113826 -0.1111538   0.00073864  0.10527004 -0.00977407 -0.026647
 -0.11891927 -0.14407279  0.10367966 -0.08466191  0.07468273 -0.08104907
 -0.11775035 -0.11859571  0.07676577 -0.01168549  0.0693885  -0.12710166
  0.09038144 -0.1122492  -0.13709885 -0.0922381   0.11255636 -0.09456997
 -0.08829644  0.05286553  0.01358369 -0.16789669  0.14550899 -0.10354365
 -0.04805452  0.09266958 -0.12483927 -0.03647736  0.082277    0.05608062
 -0.00863482 -0.12543745 -0.12354131 -0.10105096 -0.12695009  0.07515626
 -0.13034914  0.07564527]
[ 3.20454128e-02 -1.32917641e-02  7.00114816e-02  8.73490423e-02
  2.19280958e-01 -1.65976435e-02  4.59510796e-02 -1.23229608e-01
  1.95856258e-01 -5.88841885e-02  2.27482766e-01  6.26649335e-02
 -1.17718033e-01 -1.04097426e-01  1.16470851e-01  1.24786094e-01
  2.81054191e-02 -7.76621178e-02 -1.44628897e-01  1.02748320e-01
  1.45795554e-01 -1.11982226e-01  3.48892957e-02 -1.46155864e-01
 -1.55664518e-01 -7.64089152e-02  9.06755254e-02 -2.36117635e-02
  3.88096906e-02 -1.40118152e-01  9.65444185e-03  4.13556993e-02
  2.79777031e-02 -3.34050320e-02 -8.96616280e-02  1.94143271e-03
  1.35653526e-01  4.84257564e-02  7.29767010e-02 -9.43253636e-02
 -1.20494127e-01  1.49357334e-01 -1.63275138e-01 -8.18967819e-02
  1.48544177e-01 -9.63377729e-02 -4.96984273e-03  8.18250626e-02
  7.31623620e-02  1.12193182e-01  1.21577218e-01  7.16132969e-02
 -3.40803452e-02 -1.34172276e-01 -1.60123304e-01 -2.21035570e-01
 -1.34180173e-01  3.50694433e-02 -7.17919543e-02  9.06313658e-02
 -8.26514959e-02 -1.08780414e-01  1.83856145e-01  5.74527159e-02
  3.07604931e-02 -1.06735885e-01 -1.42749041e-01 -7.37808049e-02
  1.50686577e-01 -3.62168700e-02  2.18716990e-02 -1.26110762e-01
  1.33684143e-01  5.44046201e-02 -1.44333065e-01  5.15371375e-02
 -1.10212192e-02 -1.31307304e-01  5.90715557e-02  1.76018532e-02
  1.25463456e-01 -1.35958314e-01  4.71244790e-02 -1.21777616e-02
 -1.41112348e-02  1.10664554e-01 -7.59925768e-02 -1.27675012e-01
  2.11823031e-01 -1.12917878e-01  1.25432536e-01 -3.63305770e-02
 -1.49074867e-01  1.98855385e-01  2.07679309e-02 -5.10103814e-02
 -7.57279769e-02 -2.69484837e-02 -5.65072931e-02  5.29961064e-02
 -2.21301783e-02 -1.60505697e-02  2.20092796e-02  1.61262915e-01
 -1.16408681e-02  1.40972972e-01  1.96109042e-02 -6.97942525e-02
 -1.35461882e-01  1.35000661e-01  2.03592833e-02 -9.70790237e-02
  1.00400299e-01  1.18711814e-01 -1.31832182e-01  1.14215121e-01
  8.02168995e-02 -1.51611622e-02  2.21466981e-02  6.91535324e-02
 -3.81649993e-02  9.32378771e-06  4.51656953e-02 -7.68239051e-02
 -1.37496799e-01 -8.38616341e-02 -3.23255844e-02  9.92249325e-03
 -1.51170045e-01 -1.13453835e-01 -3.61533724e-02  8.96638408e-02
 -8.60099271e-02  1.46275714e-01 -1.44188106e-01  4.76513058e-02
 -1.28165171e-01 -4.97518033e-02 -1.31362960e-01 -1.04634203e-01
  1.22246064e-01  2.37763859e-02  8.56656283e-02  1.45111591e-01
  8.66579488e-02 -1.03081219e-01 -1.94321275e-02 -1.56923741e-01
  7.29586333e-02 -1.31068319e-01 -1.31729292e-02  1.67314500e-01
  4.02293690e-02  7.23036453e-02  1.71739291e-02 -1.75152242e-01
  5.12821414e-02  2.29870304e-02 -1.64655551e-01 -1.14838071e-01
  1.41934991e-01  1.03723459e-01 -7.71665126e-02 -9.16599631e-02
 -9.93731990e-02 -1.60221204e-01 -7.03238416e-03  1.67915747e-01
 -3.62631232e-02 -1.09795429e-01 -3.17671783e-02  1.14989385e-01
 -3.01717836e-02 -1.77649215e-01  2.80474275e-02 -1.17163815e-01
  5.08138165e-02 -1.41171917e-01  1.03513688e-01  1.04595743e-01
 -9.66686830e-02 -1.52852505e-01  9.13980305e-02 -4.22624759e-02
 -2.99825817e-02 -1.11419208e-01 -1.66220188e-01 -1.36207357e-01
  1.83818683e-01 -9.38968733e-04  1.69175595e-01  3.12228519e-02
 -6.38592243e-02  4.11994755e-02 -1.86574921e-01 -8.84925127e-02
  2.20611855e-01  3.53112146e-02 -1.18320594e-02 -1.23588987e-01]
[-7.04304650e-02 -6.86059147e-02  1.14630938e-01 -1.39705122e-01
  8.70324969e-02 -1.77928177e-03 -1.06561899e-01 -1.43976539e-01
  8.80608857e-02  1.62824482e-01  5.51354624e-02 -2.55474355e-02
  1.05243333e-01 -4.79309596e-02  1.44051835e-01  5.15833013e-02
 -1.07386641e-01  3.17379907e-02 -1.70914233e-02 -1.62466705e-01
  9.11762267e-02  9.17175263e-02 -1.25243559e-01 -6.71445727e-02
 -5.66960033e-03 -8.66247192e-02 -1.64909475e-02 -4.97318432e-02
  7.55473450e-02  8.40399340e-02 -7.11685196e-02 -3.27488668e-02
 -1.24823675e-01 -5.45013919e-02 -1.00273483e-01  3.31441388e-02
  1.74742237e-01 -1.23363227e-01  1.56493679e-01  5.96310720e-02
  3.30433771e-02 -5.72942123e-02 -3.36097628e-02  1.35417521e-01
 -5.96028827e-02  1.10302441e-01 -3.48019553e-03 -1.66571066e-02
  6.32384196e-02 -1.86477508e-02 -4.53752354e-02  6.26165941e-02
 -6.94666430e-02  1.50088906e-01 -9.21339840e-02  4.83562239e-02
 -1.73882589e-01 -4.64169271e-02  1.36440396e-02 -1.07775293e-01
  2.04845667e-02 -9.92449448e-02  7.75327310e-02  1.43296212e-01
  3.96923050e-02  6.63320050e-02 -1.43290684e-01  1.53654873e-01
 -8.05266201e-02 -7.85936564e-02  9.18756053e-02  5.51332235e-02
  7.43060410e-02 -1.39894873e-01  1.67064950e-01  1.32848248e-01
 -1.44406036e-01  8.27744603e-02 -9.08463448e-02 -1.16276376e-01
  1.13035396e-01  1.15794927e-01 -1.16818562e-01 -1.34788960e-01
 -1.33521438e-01 -1.12588843e-02 -1.11025080e-01  2.24321354e-02
  7.75205642e-02 -9.12139490e-02 -1.24474898e-01 -1.30197778e-01
  1.56362902e-03 -2.90651564e-02  1.94031931e-02 -4.41289470e-02
  1.71841886e-02 -1.47521183e-01  3.40299234e-02 -1.55547226e-03
 -1.39469489e-01 -1.26050055e-01 -1.32277869e-02  2.11504683e-01
  1.13321766e-01 -7.52357170e-02  8.72156676e-03  5.09507619e-02
 -6.99184760e-02 -1.00092916e-02 -1.36300087e-01 -1.78613479e-03
 -1.26056895e-01  1.11376040e-01  1.23082586e-01  1.04618065e-01
  9.17157829e-02 -4.07362729e-02 -2.30745003e-02  5.82674742e-02
 -1.09171636e-01 -4.97739390e-02  4.23542410e-02 -4.79130819e-02
  1.22467525e-01 -3.84355523e-02 -9.31159258e-02 -1.43131793e-01
  8.13663155e-02 -3.65899801e-02 -9.42946598e-02 -4.62856181e-02
  1.59389153e-01 -4.01101932e-02 -5.67979850e-02  1.05120048e-01
 -7.00235367e-02  4.15661819e-02 -4.17896137e-02 -3.29924487e-02
  6.78669810e-02 -9.91228819e-02 -1.21968100e-02  1.20111778e-01
  5.10462560e-02 -7.81394541e-02 -1.09490477e-01  6.65583238e-02
 -2.79160496e-02 -1.42562151e-01  1.63917735e-01  1.05917200e-01
 -6.22395612e-02 -2.95783630e-05 -8.62659514e-02 -1.82012038e-03
 -5.85106853e-03 -1.54602930e-01  2.88832765e-02  6.94471300e-02
 -2.14964827e-03 -1.49896458e-01 -1.46685943e-01  7.46968985e-02
  3.60209644e-02  1.35745004e-01 -1.21680453e-01  6.24157824e-02
  1.06693953e-01  7.88273439e-02  9.43081900e-02  6.32488951e-02
 -1.99658703e-02  1.01945892e-01  1.55141354e-01  4.21052128e-02
 -4.25054356e-02  1.57683849e-01  1.24862254e-01  1.48540437e-01
 -3.93513925e-02  1.92421686e-03 -1.64327711e-01 -1.08935639e-01
  6.74573109e-02  1.90775581e-02 -4.69918437e-02 -7.03988522e-02
  3.62008587e-02 -1.35540411e-01  1.30292162e-01 -2.74162833e-02
  1.25822067e-01 -8.51324722e-02  1.13741457e-01  5.84443361e-02
  2.06452861e-01  3.12491227e-02 -7.04963431e-02 -5.55530190e-02]
[ 0.12034269  0.07791006 -0.10074271  0.03261475 -0.10755228 -0.10107117
 -0.09606963 -0.09380313 -0.06961858  0.09184813 -0.00444699  0.07272816
 -0.07730642 -0.01503139  0.12136795  0.01186402  0.11554404 -0.08964937
  0.10078243  0.06384949  0.02703043  0.04859828  0.11020118  0.14702497
  0.03280491  0.17326674  0.11876433  0.01747981  0.06330618  0.13348551
 -0.02684966 -0.1507006   0.13296515 -0.03157312  0.12040676  0.00115287
 -0.10696086 -0.15673372 -0.14833324 -0.12550245  0.10854726 -0.05421948
 -0.01262519 -0.13393618  0.1285769  -0.05656172  0.07555122  0.146616
  0.13967703  0.08243944  0.03630025  0.04460907 -0.14635476 -0.09779327
  0.09013434 -0.1188842  -0.08616802  0.10141585 -0.16750072 -0.06137026
  0.13953102  0.08862435 -0.13264813  0.00085795 -0.07775342 -0.02580752
  0.01927612  0.0758083  -0.09230462  0.01761079 -0.06194295  0.15442123
  0.08188982  0.1261927   0.06949329 -0.03107588  0.09010006 -0.04263555
 -0.14200963  0.12880078  0.11725003 -0.15316759  0.0944606   0.06494305
  0.12981041 -0.1167803   0.05715401  0.01102874 -0.10593121 -0.10519156
  0.09103396  0.02286866  0.07182749  0.06296141 -0.00325239  0.11989586
 -0.01170634 -0.03261449  0.02390738 -0.05294492 -0.03787395 -0.05459681
 -0.1557462  -0.0541727  -0.07329555  0.06235487  0.11017434 -0.05795157
 -0.10582318 -0.01327685  0.11641249 -0.13873512  0.11117266 -0.00173189
 -0.06641384 -0.12442727  0.10960719 -0.06308491  0.08604486  0.06831707
  0.13130754 -0.16029884 -0.01039238  0.12270915  0.08035439 -0.02088999
 -0.09091014 -0.15133072 -0.06911225  0.01260875 -0.12472523  0.03504485
  0.00627403 -0.09364217 -0.09865492 -0.1169911  -0.16522296 -0.167219
 -0.1262508   0.13064104 -0.10662807  0.11446789 -0.1521939   0.01154703
 -0.14434649  0.03834087  0.05848087 -0.0337538  -0.06986389 -0.01349664
 -0.02501703 -0.12411132 -0.08484048 -0.10510229  0.04336756  0.08046264
  0.03855613  0.12920761 -0.17927283  0.0179646   0.01959074 -0.01388574
  0.10824268 -0.07527211 -0.14028202 -0.13853255 -0.1569298  -0.00481109
  0.14702818 -0.0920222  -0.11233817 -0.04056231 -0.06019948  0.07183392
  0.12542021  0.04113167 -0.02761034 -0.11819965 -0.02862335 -0.0504633
 -0.03858396 -0.026392   -0.11084343  0.01106374  0.00544516  0.13124874
 -0.11033811 -0.00568569  0.15886113  0.02721593  0.11779734  0.15883557
 -0.08935278  0.11579317  0.09534871 -0.06737778  0.09071712  0.13345268
 -0.11295713  0.15423854]
[ 4.47348080e-04  4.53318916e-02  9.43509191e-02 -1.13451682e-01
  7.19374791e-02 -1.37935719e-02  1.11260720e-01  2.94993222e-02
 -1.13080136e-01  1.02032714e-01  1.39475614e-01  1.16197737e-02
  1.33510396e-01  9.68391914e-03  1.56421855e-01  1.67144224e-01
 -6.56197593e-02 -4.48801368e-02  1.52845725e-01  5.73826917e-02
  1.19682968e-01 -9.37854126e-02 -2.45958399e-02  9.43440720e-02
 -1.11275144e-01  1.43743694e-01  4.90867458e-02  8.23900104e-02
  1.28172621e-01  1.54679298e-01  2.92993281e-02 -8.27490091e-02
  8.59763846e-02  1.08904503e-01 -7.71154761e-02  1.33621141e-01
  1.56346470e-01  1.08802885e-01 -1.38047650e-01  1.28198162e-01
  1.36924326e-01  1.00823194e-01 -1.52876213e-01  8.01640078e-02
 -1.78482011e-02 -2.66994163e-02 -3.97735871e-02 -1.33479804e-01
  6.77181259e-02  1.20296374e-01  1.37949482e-01 -2.67637912e-02
  3.38977613e-02  7.13164359e-02  9.50577483e-02  5.08871563e-02
 -1.50029436e-01  7.88991526e-02 -1.62356452e-03  2.07890011e-02
  1.13318421e-01 -1.07133426e-01  1.19968001e-02 -6.11803681e-02
  1.50628984e-01 -1.21853463e-01 -5.08837961e-02 -2.93240463e-03
 -1.43459275e-01  1.28201038e-01 -1.70244277e-01 -1.37518793e-01
  6.87159374e-02 -1.15084857e-01  4.56947200e-02 -3.22955847e-02
  5.34062907e-02  1.11657474e-02 -1.85997244e-02  5.42172305e-02
 -4.77084741e-02  4.12847213e-02 -1.43296525e-01 -8.11501294e-02
 -7.31561854e-02 -8.51374939e-02 -1.41711265e-01 -1.31453812e-01
 -1.51749793e-02  5.99646382e-02 -1.31454438e-01 -1.12684190e-01
 -9.47813019e-02  1.35010883e-01  1.26460090e-01 -8.53597745e-02
 -6.78368062e-02 -9.58185717e-02  1.45854522e-02 -9.82951224e-02
 -9.06578004e-02 -5.80968335e-02 -6.19802698e-02  1.26918048e-01
 -1.28930643e-01  8.66784155e-02  1.04339443e-01  1.23181820e-01
 -9.68559459e-02 -7.26508349e-02 -2.22992357e-02 -6.20663054e-02
  1.34362489e-01 -1.06618747e-01 -1.39041811e-01 -5.48519120e-02
 -4.08692025e-02 -1.90932918e-02 -1.33367717e-01 -4.09130417e-02
 -8.80943984e-02 -5.12763113e-02 -2.32570823e-02  9.64960828e-02
 -1.00511804e-01  4.73457538e-02 -8.21091905e-02 -2.86155343e-02
 -1.22587785e-01 -1.26519918e-01  1.02979168e-01  2.65829898e-02
 -6.44743443e-02 -4.15816084e-02  3.57637554e-02 -2.81369183e-02
 -3.02525163e-02 -1.58867881e-01 -1.58971384e-01  3.33738099e-05
 -3.57720330e-02  3.51162888e-02 -9.44236945e-03  8.53511095e-02
  1.14763036e-01  9.37689394e-02  5.84564321e-02  1.21704586e-01
  3.15305181e-02  6.85980693e-02  1.54561177e-01  1.18379399e-01
 -1.16817340e-01  6.03865599e-03 -1.65587991e-01  1.14800446e-01
  1.39689788e-01  4.68081459e-02 -1.73420116e-01 -1.38173208e-01
  1.23976536e-01  4.14327681e-02  9.33054611e-02 -1.44635811e-01
  1.13990277e-01  1.23358272e-01  4.34181467e-02  8.58583208e-03
  1.49130717e-01  2.32434571e-02  4.46134731e-02  2.21562721e-02
 -6.32469030e-03  6.60668761e-02 -1.26773715e-01 -7.41202384e-02
  8.01459104e-02 -1.43361473e-02  6.48535565e-02  2.16611717e-02
 -1.68526208e-03 -8.58549848e-02  1.26433060e-01 -1.26241341e-01
 -5.64082898e-02 -8.01497102e-02 -4.89028320e-02 -1.80109702e-02
 -5.83442720e-03  4.94561484e-03 -9.65546593e-02 -4.84825447e-02
  2.88428534e-02 -1.42031148e-01  5.16710978e-04 -9.94621217e-02
 -1.09578706e-01  6.78377822e-02  6.40896149e-03 -6.94216117e-02]
[ 0.06621307  0.12679522 -0.03902851  0.06323954 -0.14787261 -0.08709201
 -0.04213383 -0.05373044 -0.05251405  0.03753398 -0.15213822  0.11428007
  0.07651275  0.05756916  0.1662254  -0.12419578 -0.03136426  0.00671071
 -0.11825003 -0.14729886  0.06512893  0.02045535  0.07132664  0.16509333
  0.05287427  0.04174502 -0.10198365 -0.1308162   0.14328848  0.10037813
 -0.13995066  0.03968569 -0.06409323 -0.00436675 -0.07060998  0.1380537
  0.1706312   0.13445     0.14925934 -0.08221123 -0.07054031  0.1131069
 -0.11628638 -0.13515478  0.1342598  -0.1294237  -0.06724519 -0.09457368
  0.08431044  0.08660289 -0.12101926 -0.1580651   0.02692141  0.01932774
  0.09251062 -0.02348875 -0.03462934 -0.14732397  0.01432489 -0.12994908
 -0.02218365 -0.07591884  0.1534213   0.1286263  -0.01236501 -0.11070866
  0.05393519 -0.01584068 -0.14367191  0.07266056  0.02948625 -0.03995632
  0.13697389  0.03374155 -0.08571262  0.03022531  0.02295251 -0.12143615
 -0.08199503 -0.02341015 -0.02225633 -0.06328183 -0.03891128 -0.04351107
 -0.11861467 -0.13204111 -0.01724572 -0.15102455 -0.01708664  0.14243437
 -0.13992748  0.13514104 -0.01297413  0.12781377  0.10789875 -0.05994957
  0.11165891 -0.13145515  0.08408017 -0.05645939  0.06149481  0.03565065
 -0.03271103  0.00857937  0.16128051 -0.13424866  0.04660861 -0.04180015
  0.13444562 -0.06455705  0.14567529  0.06397734  0.01341716 -0.15888833
 -0.12384263 -0.09999094  0.15528642 -0.02243228 -0.11278765  0.03155975
  0.15602739 -0.10399697 -0.06508204  0.00156259 -0.0209538  -0.01267973
  0.10956252  0.0862884  -0.09399587 -0.12220297 -0.10986513 -0.05467138
 -0.04461482 -0.10914081  0.0167894   0.14230323  0.07721629 -0.11080402
 -0.14165306 -0.05208616  0.08539962 -0.16169275  0.0317639   0.00993147
 -0.14583597  0.11687594  0.00866171  0.01489893  0.08569171 -0.07223532
 -0.13048455  0.16368449 -0.01456559 -0.13021724  0.08026118  0.00787328
  0.03943794 -0.05362539  0.12977321 -0.09470935  0.04309252 -0.12427621
 -0.05027199  0.01433002  0.07871173  0.1437327  -0.13411728  0.03799358
  0.09666641  0.09164663  0.14759994  0.05593838  0.06446185 -0.12911674
 -0.14342616 -0.13590355  0.02568553 -0.04755125  0.0601628   0.08679161
  0.15823726  0.01134774  0.04496771  0.10945933 -0.1382876   0.07148139
 -0.06177457  0.03118261  0.08261218  0.13774413 -0.08499459 -0.0025683
 -0.10152259  0.12901655 -0.02904288  0.00779959  0.08382482 -0.02041389
 -0.04731417 -0.04094306]
[ 0.00630919 -0.08857001  0.00556111 -0.0019444  -0.11241167  0.15426074
  0.05064112  0.13060445 -0.13581438 -0.02814615 -0.14653523  0.12370607
  0.09240153  0.16403984  0.01847852 -0.14954685  0.11031052  0.00471776
 -0.04218505 -0.07977229 -0.02676399  0.02650249 -0.09820216 -0.14291982
 -0.0355354  -0.08201429  0.09382554  0.15109831  0.087363   -0.08561475
 -0.03382191 -0.16590893 -0.12223296 -0.10669774  0.01827395  0.03083322
 -0.0701827   0.03628059 -0.11823432 -0.12063177 -0.10432792  0.06424641
 -0.11631994  0.09826481  0.10200159 -0.09997575  0.04287612  0.11639945
 -0.13602483 -0.0826741   0.00692599  0.02391975 -0.08237365 -0.14808361
 -0.09404003 -0.06700335 -0.17556368  0.13205114  0.06128236 -0.08038881
  0.14909118 -0.06532148  0.16124013 -0.1269421  -0.1259866  -0.13691558
  0.15295881  0.05732335  0.10465226 -0.01992029 -0.00626699  0.11311524
  0.00597088  0.10245317  0.00183392 -0.06203776  0.16039316  0.09259067
  0.03347911 -0.05393835 -0.12776245 -0.01672095 -0.11151796  0.01872549
 -0.06614218  0.062243    0.00141083  0.0261542  -0.06518456 -0.00443678
 -0.02239918  0.060084    0.05995408  0.07302145  0.05127972 -0.15071645
  0.10285872 -0.16124798 -0.0433144  -0.0615709  -0.15447277 -0.04474901
  0.03349827  0.07380436  0.15784286  0.03774836  0.13542655 -0.14916109
  0.06801924 -0.02541004 -0.14853065 -0.16121137 -0.09968406  0.04781157
 -0.04793563 -0.04381847  0.14438924 -0.14116028  0.15700415  0.00833817
  0.04933216 -0.09547146  0.02624428 -0.07757488 -0.16382504  0.09551824
 -0.07195294  0.02986415  0.15004963  0.08762576  0.06470224  0.06771579
 -0.1310562  -0.06142882  0.05828563 -0.12634045 -0.15358955 -0.15013589
  0.148138   -0.05341185 -0.10301825 -0.13828558  0.13315044 -0.01930981
 -0.03593298  0.02966837  0.0129749  -0.14717722  0.11740419  0.08350779
  0.06199687  0.14234518 -0.08788025  0.06888283  0.15069486 -0.05104633
 -0.11868749 -0.09551099 -0.09185649  0.04691007 -0.10163109  0.03078417
  0.08486855 -0.15337388  0.06116911  0.06132016 -0.01095524  0.03127188
 -0.04029019  0.06260607  0.16054864  0.16771954  0.00153172 -0.12092317
 -0.15258679  0.00924859 -0.10676881  0.12474065  0.00603799  0.11740185
  0.00669129 -0.10793759 -0.1418641   0.15085757  0.11319865 -0.14163555
 -0.05148552  0.09836057  0.01658406 -0.03785132  0.1521705  -0.01418973
  0.03414387 -0.08797681  0.01149199 -0.15401539 -0.14197396  0.04160513
 -0.0244989  -0.13457695]
[ 0.02235993  0.1134092  -0.11282961  0.04367683 -0.02811752 -0.03888583
  0.03904143  0.15060686 -0.10969263  0.15163222  0.07166846  0.10392962
  0.02345489  0.13363063  0.13309443 -0.14377241  0.11250646 -0.11250906
  0.13003343  0.1411424   0.08971602  0.01896536  0.01972232 -0.08920917
  0.12961483  0.16933934  0.06199579  0.06266578 -0.13093111 -0.0686966
  0.11620328  0.02563295  0.00146687 -0.13422868 -0.13844775  0.05857373
 -0.14103705 -0.10905432 -0.02356965  0.05758199  0.06156481  0.05433273
 -0.11169347 -0.08666162  0.09718093  0.09180751  0.12310302  0.1137113
 -0.06433284 -0.04750506 -0.12878773  0.06202235 -0.11317466 -0.14843799
 -0.14665914 -0.17090201 -0.03158865 -0.12083121 -0.05967566  0.08886116
 -0.11511545  0.12940618  0.07800107 -0.0627518  -0.12728637 -0.13371997
 -0.14691867  0.04391551 -0.15272129  0.064138    0.11734672  0.08386742
  0.03299613  0.04984874  0.13555582  0.05180931  0.1323873   0.04264156
 -0.08052997 -0.05892587  0.13100958 -0.01129645  0.03123916 -0.10878704
  0.12688272 -0.04815499  0.04552448 -0.05829402 -0.11423322  0.12572718
  0.14391978 -0.00554666 -0.11954267  0.02729697  0.1588774  -0.1066163
 -0.07950027  0.08531681 -0.01989101 -0.14835697  0.1024371   0.04901526
  0.13050461  0.11664037  0.01888017  0.02152074 -0.01156897 -0.03134829
 -0.15624231  0.01807124  0.03541301 -0.04254962 -0.11766783 -0.10762124
 -0.09273969 -0.01684864  0.05970327 -0.05179055 -0.04494018 -0.01110789
  0.02396906  0.04608233 -0.01175782  0.05390406 -0.11026751 -0.09898118
 -0.1531911   0.09663451  0.03500767  0.14351003  0.05371438  0.15089801
 -0.02201369 -0.0200539   0.13755475 -0.05434    -0.10707588  0.00319892
  0.15271096  0.07651436 -0.13049594 -0.00510702  0.00925869  0.10059074
  0.01683545  0.12348466 -0.10699411 -0.00052127  0.11431224  0.04957061
 -0.13139462  0.04339236 -0.00909819  0.07047299  0.01104443  0.08179757
  0.01504496  0.12746584  0.05996994  0.02720867  0.06373728 -0.04330157
  0.01822137 -0.00944635 -0.00851512 -0.08502389  0.15537384  0.15839201
  0.1443935   0.095061    0.12476816  0.07727772  0.12801388  0.0102495
  0.1325288   0.04405284 -0.09992695 -0.14164199  0.15041874  0.01062419
 -0.13208991 -0.04222216  0.0098965  -0.12755455 -0.1099463   0.00744809
 -0.15033585 -0.05453278  0.03700159 -0.10167831  0.05949944 -0.13286796
  0.00481589  0.16569261  0.04431381  0.0776417   0.12935351 -0.01434675
  0.13418071 -0.01827252]
[ 0.11923475 -0.11252721 -0.01612521  0.14952594 -0.08284593  0.10355625
 -0.14642203  0.04702358  0.14888874 -0.08578547  0.02856003 -0.13463794
  0.12265647  0.02848623 -0.03900586  0.03052433 -0.15818223 -0.03703476
  0.01320209  0.1068527  -0.1604416  -0.15412244 -0.12564081  0.14789739
  0.03521398  0.16762856 -0.08790848 -0.02769927  0.11419953  0.12730724
 -0.13368092 -0.11947755 -0.13225625 -0.12164513 -0.098651   -0.10131049
  0.03566371 -0.14957811 -0.00970089  0.02063828  0.10029274 -0.11660583
  0.08946247  0.00728147 -0.0798415   0.15144752 -0.09162003 -0.04774109
 -0.02027224  0.03401853  0.08678512 -0.01100383 -0.10148697 -0.15855408
  0.05593523 -0.0385201   0.04345581 -0.12771274 -0.08988284  0.08602636
  0.14882801  0.00018179 -0.13586435  0.05868448  0.13301042 -0.13204014
 -0.02035897  0.12925598  0.07671788  0.12979059  0.14909904  0.13632281
  0.03957037 -0.07825218  0.16194901  0.01679436 -0.07846142 -0.13996497
 -0.13610394 -0.11834484  0.16666307 -0.10879619 -0.0214464  -0.03383468
 -0.12368318  0.04206973  0.13894306  0.05386027 -0.12358628  0.11369534
 -0.04930351 -0.15953742  0.11125419  0.09723406  0.05974634  0.09398106
  0.08747218 -0.0047433  -0.0693809   0.06130843  0.13226609  0.00484874
  0.00776938  0.10966793  0.02887488  0.15690929  0.11210122  0.15259881
 -0.01851549  0.11906402 -0.05503306 -0.04785214  0.05366793  0.13537267
  0.08039611 -0.04758015 -0.13080649 -0.10222839  0.06362871  0.02525378
 -0.01885065  0.15003769 -0.02971422 -0.03300368 -0.10173772  0.01060109
  0.12474856  0.14036115  0.11325762  0.13830541  0.09825706  0.13058183
 -0.0312558   0.12349393  0.0426114   0.16123484 -0.11058411 -0.11131363
  0.13105933  0.12742877 -0.05408368  0.02294972 -0.03021952  0.12990364
 -0.14638697  0.01166772  0.00943321 -0.13543603  0.12040149 -0.05944852
  0.01159464  0.1380227   0.04298271  0.04354139  0.00971693 -0.02019187
 -0.04484433 -0.04380675 -0.06653989 -0.07580972  0.15141013  0.13631636
  0.09714697  0.0238493  -0.11005837 -0.15352973  0.04345684 -0.02621143
 -0.05849399 -0.13179654  0.1051148   0.05280835  0.09441452  0.09444189
 -0.06473388  0.12705302  0.00851578 -0.11491558 -0.03431467  0.10754007
 -0.14928983 -0.07499746  0.09963069 -0.13474292 -0.02408964 -0.0771658
 -0.16802783  0.00686602  0.1671256  -0.07802477 -0.13124964 -0.12872621
 -0.11287071 -0.06327004 -0.11868965  0.07075101 -0.12781398  0.1343731
  0.05481335  0.14231776]
[ 1.29206419e-01 -6.87376261e-02  4.13068943e-02 -1.02697611e-02
  2.03926470e-02  5.53962849e-02 -7.98104852e-02  1.13159783e-01
  1.15955226e-01 -1.33012414e-01  1.53004751e-01 -1.60225451e-01
  1.48074761e-01  1.45107703e-02  8.54286924e-02  1.40473559e-01
 -4.88244882e-03  9.25722271e-02  3.26079503e-03 -7.85244554e-02
 -9.67631266e-02 -4.31125239e-02 -1.00923449e-01 -1.14418946e-01
 -9.40283854e-03 -1.13018006e-01  1.51882187e-01  4.78794016e-02
  1.20127071e-02  4.35523726e-02  1.20354265e-01  8.26996341e-02
 -6.92206919e-02  7.20540509e-02  3.99227440e-02 -1.58644482e-01
 -3.43543887e-02 -5.25625702e-03 -1.39356777e-01 -8.84925947e-02
 -1.41889602e-01 -1.32313251e-01 -1.31429151e-01  1.03126183e-01
  6.87225834e-02  1.17897741e-01  1.09848939e-02 -2.47090608e-02
  9.30333063e-02  1.00548789e-01 -8.68761763e-02  1.44944042e-01
 -8.93515050e-02 -2.15212665e-02  1.56887710e-01 -7.24405572e-02
  1.13607556e-01  1.55256689e-01  1.46526977e-01  3.90596613e-02
  7.17204213e-02 -1.03472294e-02  1.39880985e-01 -2.51481291e-02
 -1.27060786e-01 -1.39096290e-01 -1.31290302e-01 -8.81513432e-02
  3.45621221e-02 -1.27065897e-01  1.34856924e-01 -1.09139033e-01
 -1.61978826e-01  1.68819155e-04  7.93512985e-02  1.07524246e-01
 -1.37154758e-01 -1.41888037e-01  1.10478349e-01 -3.75260576e-03
 -1.34565026e-01 -7.76811913e-02  3.35029438e-02 -8.15349147e-02
 -1.50013670e-01 -5.37645966e-02 -7.30302632e-02 -4.01679501e-02
 -1.27776917e-02  6.28317222e-02  5.62715046e-02  4.42227582e-03
  5.28663956e-02 -5.30089326e-02 -1.35173172e-01  1.59249306e-01
  1.33302793e-01  8.78243521e-02 -7.96636716e-02 -9.26588178e-02
  7.88092688e-02 -2.12607980e-02  1.43819794e-01 -1.58193648e-01
 -1.58828884e-01  2.72973403e-02 -1.16098374e-01 -1.52855068e-01
 -9.01796669e-02 -5.98587617e-02  9.10610557e-02 -1.08079463e-02
  7.06152944e-03 -1.06004708e-01  1.06394060e-01  1.19558208e-01
 -1.09489612e-01 -1.37627870e-01 -2.48614475e-02 -1.59551039e-01
 -1.29335508e-01 -4.30072454e-04 -1.45468786e-01 -1.18967056e-01
  5.76316342e-02  2.22695377e-02  1.27848372e-01  1.60598040e-01
  6.33666664e-02  1.68910876e-01 -8.97437632e-02  7.54651502e-02
  1.49376184e-01 -1.01171739e-01 -1.25519454e-01  6.86552376e-02
 -1.11017749e-01  1.64219171e-01  1.32912055e-01  9.61297527e-02
  1.23951733e-02 -1.32435888e-01 -8.04861709e-02  1.33682668e-01
  1.41423002e-01  1.66390136e-01  4.39411886e-02 -1.50439829e-01
  1.26055360e-01  4.35567349e-02 -9.17378590e-02 -7.42727593e-02
 -2.91891862e-02 -7.86434263e-02 -3.62854116e-02  6.95675984e-02
  8.03505555e-02 -1.05830662e-01  1.50987178e-01 -1.86504442e-02
 -1.26434579e-01 -5.03028147e-02 -1.26406932e-02  1.43275693e-01
  1.63077056e-01  1.30288035e-01  3.81285213e-02  1.03680953e-01
  3.51533554e-02  1.15212739e-01 -1.00874379e-01 -1.48936972e-01
  1.11021779e-01 -7.57891834e-02 -1.16860151e-01  3.14364815e-03
 -1.28992707e-01 -9.01796073e-02 -1.61675781e-01  1.25337228e-01
  1.37619272e-01 -1.92020275e-02  3.33096199e-02  4.93479110e-02
  1.13045476e-01 -1.36660501e-01 -6.44674003e-02  1.15849867e-01
 -1.00045234e-01  6.93834946e-02  1.42174717e-02  1.11253984e-01
  1.55298308e-01 -1.47018850e-01  1.44773364e-01  2.24349536e-02
  1.14486543e-02  1.30374655e-01  4.02419977e-02 -4.94776340e-03]
[-0.02936869 -0.14522208  0.10867935  0.15078342  0.0430709   0.01818766
 -0.06927174 -0.05189517 -0.0083766  -0.10373661  0.01418428 -0.12456679
  0.14828284  0.08129235 -0.06097094  0.07041473 -0.15956564  0.07161342
 -0.01549576  0.06762387  0.02693009 -0.0012388   0.09575507  0.14189363
  0.11221731  0.06408124 -0.05931552 -0.05805818 -0.03246127 -0.10126564
  0.02176535  0.08850696  0.10946493 -0.01663024 -0.16893004 -0.11565929
 -0.06555387  0.05447713  0.15375236 -0.13332888  0.11691137 -0.11585369
  0.05284571  0.07349265 -0.12011559 -0.11651765  0.04609759  0.13478634
 -0.03591722  0.07472371 -0.03378832 -0.10639372 -0.01878285  0.02092243
 -0.09465682  0.1412939   0.07042767  0.04228118  0.04519794 -0.0562634
 -0.05622945  0.12261546 -0.10930464  0.01155904  0.06618901  0.15079217
 -0.03506768  0.13146125  0.16451716  0.14627828 -0.08673552 -0.04931717
  0.0715956   0.05797646  0.1402926   0.03349689  0.1244224   0.0960869
 -0.01780578 -0.17339139 -0.16943854  0.1566794   0.02013154 -0.02733115
 -0.0002572   0.12630503 -0.15864871  0.06785312 -0.09200102 -0.09515422
 -0.12142952  0.00571469  0.03682119 -0.02340724 -0.00792792  0.08856806
  0.02618631 -0.13903938  0.12622188 -0.04668517  0.15474679  0.10763529
 -0.08897874 -0.14317018  0.1424613  -0.09514251  0.06609298  0.0391208
  0.13396716 -0.02723746  0.13449852  0.04294231  0.15810384  0.08855175
 -0.05970221  0.03100404  0.11867026  0.00782753 -0.0647401  -0.01935909
  0.07707103 -0.06889401  0.02037507 -0.0862508   0.12959507  0.01077872
 -0.12418633 -0.11786426 -0.11658371 -0.08612352  0.12820235 -0.14374346
  0.00873515  0.04630619 -0.12614164  0.03403904  0.05465298  0.01653203
  0.07466493 -0.10917932  0.00264526 -0.00574254  0.14429212  0.08295043
  0.04410905  0.10827652 -0.10174    -0.0947905  -0.04231008 -0.03863103
 -0.06993217  0.02066134 -0.01438603 -0.08944218  0.04306263 -0.08100814
 -0.12634076 -0.07956696  0.10226255 -0.07470332 -0.05132573  0.16289061
 -0.09902752 -0.08166091  0.00133853  0.05406368  0.00613946  0.13951497
 -0.03158986  0.1366737   0.07195824 -0.00804827 -0.10730165 -0.16456077
 -0.05543723  0.14926912 -0.07861219 -0.08621293  0.10509978  0.1343124
  0.15576996  0.15714267 -0.07589731  0.04337698 -0.06942064  0.14232938
  0.14541386 -0.01346366  0.03729219  0.00368538  0.10694721  0.08834226
  0.01423488  0.04580806  0.11608914 -0.00077739  0.08220726  0.02711866
 -0.14835598 -0.1576424 ]
[ 0.08533959 -0.09313298  0.02279407 -0.15490769  0.06996002  0.07416835
  0.10637186 -0.11882793  0.11630894 -0.11349563 -0.07054114 -0.03467557
 -0.10819202 -0.1146883   0.09839799 -0.06854573 -0.13531741  0.10472192
  0.09186853  0.12777053 -0.1243891  -0.09053583  0.06119974  0.03530779
  0.09257359 -0.15580784  0.08802212 -0.10036179  0.10278629  0.16140325
  0.03219301 -0.02431495  0.04593623 -0.11591378 -0.07349211  0.04624554
 -0.09845359  0.06655199 -0.09755006  0.11337243 -0.02589593  0.0638604
  0.0704664   0.06163918  0.00150299  0.1183001  -0.00680825  0.05624998
 -0.00128583  0.05561078 -0.01708439  0.06714164  0.0989845  -0.10223371
  0.1282759   0.06657112  0.17835799 -0.1517923  -0.05461045 -0.0555014
  0.00303302 -0.1607199   0.03963183  0.10184324  0.10390925 -0.04390511
 -0.11477416  0.0507257   0.12876204  0.08329807  0.13358425 -0.0780973
  0.00619354 -0.13399482  0.13780865  0.13912047  0.0387167   0.14979768
 -0.02767025  0.09433136  0.1408528   0.1493802  -0.11440203  0.05991549
  0.12874597 -0.14229442 -0.10959709  0.0857286   0.00114815  0.10464557
  0.05420497  0.13337421  0.10864951 -0.02392461  0.07845222  0.09972563
 -0.0508918   0.06038013  0.17178114  0.14490016  0.1104977   0.04998828
  0.0136638   0.03727278 -0.02162019 -0.06527641 -0.0938611   0.01187142
  0.0018099   0.04314372  0.10439439  0.15144104  0.14157614 -0.11856556
 -0.0008735  -0.05530336 -0.02381298 -0.00183158 -0.03123584 -0.08933373
 -0.1052955  -0.03730116  0.00092465 -0.09169545  0.15620476  0.03175109
 -0.02657697  0.17247163 -0.13059902 -0.09278236 -0.02109366 -0.0958439
 -0.04851213 -0.0933067  -0.15045024 -0.13244215  0.05759284  0.03045521
 -0.05443875  0.04227491 -0.07604874  0.14206111 -0.11848649 -0.00226894
  0.10430635  0.08677667  0.16360146  0.04531452  0.09246285 -0.10817876
  0.01600508 -0.00163478  0.0244163  -0.15167384 -0.05823951  0.13034035
 -0.03021066 -0.13561286  0.10294774  0.02534022 -0.04069233 -0.02983074
 -0.08611348  0.11191393  0.08929247  0.01887503 -0.12420041 -0.00785677
  0.01202059  0.00045081 -0.01368038  0.11781306  0.00021983 -0.02387555
  0.14976181  0.13759792  0.00246344 -0.06271104 -0.10880393 -0.12781058
  0.01622433  0.15481931 -0.07144465  0.12630102 -0.1265211  -0.07272752
  0.04620299  0.13349913  0.05708897  0.16596468  0.04941791  0.00573741
 -0.11667472  0.10243428 -0.14890328 -0.05781677 -0.13944916  0.04848513
  0.10308956 -0.15305358]
[-0.03592973 -0.00233476  0.0014745   0.0051261   0.10755373  0.00080895
 -0.15515892  0.04449746 -0.11735225  0.02461579 -0.0606543  -0.05014331
 -0.13666493 -0.04298345  0.07413082 -0.06340356  0.02063935  0.17387564
 -0.00926119  0.11811313  0.03294091  0.00915086  0.0791366  -0.07317204
  0.11443785 -0.0236209  -0.05361535 -0.02271356  0.02796189  0.05660814
 -0.13752113  0.01914499  0.01782061 -0.11576272 -0.07722678 -0.06152832
 -0.14757055 -0.05624592  0.07983194  0.14973086  0.15515357 -0.15663366
 -0.08106288 -0.03448271  0.04440816  0.13823856 -0.06351893  0.12113859
  0.01200138 -0.07806103 -0.11452609 -0.01195692 -0.09013224 -0.03837857
 -0.06469975  0.04169318  0.03980681 -0.13726239  0.11492144  0.1597291
  0.1005809   0.05124028 -0.09880824 -0.14304964  0.17289577 -0.10710642
 -0.00163075  0.12833396 -0.14162268  0.08780088 -0.09677325  0.05592423
 -0.00940179  0.10946577  0.15852235  0.00020312 -0.08595595 -0.05530076
  0.08995859 -0.04811529  0.0750636  -0.02240552  0.05139694  0.02716313
 -0.06482108 -0.07918929 -0.01559143  0.05469196 -0.11797303 -0.15309376
  0.00971241  0.04890665  0.05178789  0.12636873  0.01329208 -0.10134321
 -0.09334945  0.07481779  0.01958498  0.00734639  0.05914043  0.12175211
 -0.00204462 -0.03480594  0.10649917 -0.13175784  0.02152096 -0.04987923
 -0.14878173 -0.09451775  0.11195068  0.01920359  0.10738118  0.01280427
 -0.11760622  0.13715804 -0.11872157 -0.1422963  -0.06793734 -0.08234609
  0.00594163 -0.01802039 -0.08402298  0.08651382  0.01049183  0.11709604
 -0.05012332  0.15247926  0.10035965  0.01682968  0.04577493 -0.11452708
 -0.12871619 -0.0090103   0.07182467 -0.06494538  0.03572051 -0.0926686
  0.10913669  0.0433981   0.14168769  0.04392977 -0.01048258 -0.08090229
  0.13175614  0.01731925  0.02874973  0.1332637  -0.0007015  -0.08588646
 -0.0452226   0.10050321  0.14295739  0.06126688  0.12037107  0.17067999
  0.11368962 -0.14082736 -0.00546443 -0.023962   -0.01766963  0.13848214
  0.04463444  0.13997218 -0.13854212 -0.08047181  0.07865698  0.02643784
 -0.08211812  0.12640505  0.13855375 -0.18363802  0.11133697  0.01712725
  0.14551203 -0.04304131 -0.05208262  0.12145336 -0.07389423  0.01578423
 -0.07385827 -0.07872371 -0.09430504 -0.09058034 -0.08148394 -0.02589373
  0.0538604  -0.05328964 -0.03057752  0.09427451 -0.10136134  0.05846959
 -0.04074302  0.01972243 -0.07470949 -0.11329221 -0.16308865  0.09193718
  0.1079827  -0.00944036]
[ 6.77946163e-03  5.04400395e-03 -4.96246712e-03  3.56200687e-03
  5.88977523e-03 -3.31142358e-03 -8.41896748e-04 -2.59386352e-03
  7.67682213e-03  5.13102626e-03  6.02293108e-03  8.85570142e-03
  2.89251190e-03  8.21230002e-03  1.39940344e-02  9.52759117e-04
 -2.09931633e-03  1.60285141e-02  3.25981691e-03  8.57477426e-04
  1.18315471e-02  2.26790132e-03 -2.36800266e-03 -9.93707962e-03
  5.38267847e-03  2.16001980e-02  1.27557330e-02 -1.06452464e-03
  4.18366026e-03  9.03834996e-04  1.07922975e-03  1.13914255e-02
  1.43729169e-02  1.36761172e-02  9.87687800e-03  1.26697393e-02
  1.67542733e-02 -1.25015853e-03  4.85251134e-04  7.11144274e-03
 -1.57255761e-03 -2.90525402e-03  3.64050432e-03  9.13316198e-03
  1.23591218e-02 -4.25516395e-03  1.13122799e-02 -6.01261482e-03
  5.68794645e-03  2.17070593e-03  1.73380971e-02 -2.76481127e-03
  8.41434486e-03 -3.10070952e-03  7.81413110e-04  1.17541794e-02
  2.29099449e-02  1.57818908e-03  1.58216059e-02 -7.10146548e-03
 -4.22627944e-03 -1.77790713e-03  1.34732695e-02  2.26639081e-02
  1.05193062e-02  6.61338505e-04  1.21240569e-02  3.47859855e-03
  1.04321968e-02  1.06018351e-03  1.89804193e-02 -3.08992877e-03
  1.48144197e-02 -4.54457989e-03  5.04808407e-03  9.35770478e-03
 -2.33067921e-03  2.39498517e-03  2.47581745e-03  7.03228684e-03
  1.76457521e-02  8.44782870e-03  5.07767498e-03 -7.70499464e-03
  8.28117132e-03 -1.22519373e-03  2.72829639e-05  1.00027137e-02
  1.48361707e-02  1.33909902e-03 -1.40505061e-02  4.39490844e-03
  1.43887363e-02  6.59946306e-03  1.77633227e-03 -8.25627893e-03
 -5.02511952e-03  9.54300258e-03 -1.10182520e-02  4.64862585e-03
  1.00173568e-02  2.19655130e-03 -4.21592180e-04  6.79081120e-03
 -5.16330544e-03 -6.72543421e-03  1.13144405e-02  8.21448117e-03
  4.87740291e-03  1.09950174e-03 -6.65465882e-03  8.09365883e-03
  1.70062818e-02  4.74060560e-03 -3.51768127e-03  9.48274625e-04
  9.12402850e-03  8.05081613e-03  7.48077407e-03  2.34244447e-02
  7.76519533e-04  3.64016928e-03  1.10090291e-02  6.01250492e-03
  1.45803317e-02 -9.00680106e-03 -4.36564116e-03  6.43740920e-03
  3.25226178e-03  1.12385703e-02  1.66451838e-03 -6.19692123e-03
 -1.10934377e-02 -3.10877198e-03  1.35756768e-02  3.85919772e-03
 -5.64206252e-03  7.93512631e-03  5.36433561e-03 -3.64621403e-03
  1.24433078e-02  4.86508291e-03 -8.64898134e-03  3.36830132e-03
 -1.70733198e-03  1.92455277e-02  3.64268874e-03  1.59283029e-03
 -9.29864869e-03  4.71787760e-03  1.39238928e-02  5.66502940e-03
  2.09278171e-03 -1.90728228e-03  1.04176598e-02  1.55695900e-02
  1.01505071e-02 -4.32029180e-03  3.02532520e-02 -5.42055117e-03
 -6.99494686e-03  1.55435968e-02  4.41628345e-06  8.30704905e-03
  7.21639069e-03 -1.01297442e-03  1.10897713e-03 -8.07379466e-03
  1.04487725e-02 -9.18619148e-03  2.31800694e-03  2.30656657e-02
  1.26859627e-03  3.70642287e-03 -2.52014375e-03  1.66657865e-02
  4.33523128e-05  1.04092648e-02  3.52186081e-03  1.27266496e-02
  6.66727405e-03 -5.77129610e-03 -7.52610248e-03 -1.16166882e-02
 -8.35935399e-03 -2.72194855e-03  1.40195778e-02 -5.18432772e-03
  1.17609315e-02  6.11267518e-03  3.46348062e-03 -9.83969192e-04
 -6.44198759e-03  1.23373605e-02  3.95432999e-03 -4.50995797e-03
  1.28518492e-02  3.00045288e-03 -4.48910985e-03  9.89315845e-03]
layer 2 Dense
200 100
[ 6.84565008e-02  1.49207674e-02 -6.20673075e-02  8.76337849e-03
  1.38730705e-01  1.26976535e-01  7.45357201e-02  5.13538718e-03
 -1.03398569e-01  9.20529366e-02 -7.32895583e-02  6.33032247e-02
  5.41102253e-02  1.09707909e-02  3.53863724e-02  9.57388654e-02
 -1.26572892e-01 -1.10394046e-01  5.98676465e-02 -6.62533268e-02
  1.05344586e-01 -2.48189326e-02  5.77051900e-02 -8.41353908e-02
  1.25197977e-01  1.30584031e-01  8.16198811e-02  8.57999474e-02
  1.20370492e-01 -5.66028133e-02 -1.24192365e-01  5.07329479e-02
  1.19375929e-01  8.33138227e-02 -3.83488871e-02  1.12022553e-02
  6.54572621e-02 -1.40221417e-01  1.33255720e-01 -6.35288581e-02
  1.13099374e-01  7.35813826e-02  3.47051807e-02  3.75448912e-03
 -5.14929295e-02 -4.55624163e-02  1.24094643e-01  1.13940597e-01
 -1.31321535e-01 -1.21883221e-01 -1.55225471e-02 -1.37747124e-01
 -6.34086430e-02 -9.94006842e-02 -2.12845169e-02  1.14734903e-01
 -1.03748553e-01 -3.75659280e-02 -7.77458251e-02 -7.74637610e-02
  7.33924806e-02 -1.37033015e-01  1.38964042e-01  5.05672842e-02
 -6.53982386e-02 -6.68899640e-02  7.10048946e-04  8.93159136e-02
 -3.30321305e-02  7.46786892e-02  4.37616184e-02  9.80563238e-02
  1.97051764e-02 -5.70490584e-02  9.67909247e-02  1.08856171e-01
  1.24734445e-02 -1.35065243e-01  7.86386877e-02  1.11335948e-01
 -2.26245611e-03  4.91381958e-02 -1.09410925e-04  8.83017927e-02
  3.34443673e-02  5.97359240e-02 -1.18829846e-01  6.15283027e-02
  3.67528647e-02 -7.40647539e-02 -9.72502828e-02 -1.02670163e-01
 -1.02613293e-01 -3.90683152e-02 -4.30409051e-02  1.23623252e-01
  9.27580819e-02  1.36690870e-01  4.18948084e-02 -8.51327106e-02]
[ 0.06761784  0.14297584  0.05313313 -0.05947696  0.02050844  0.03518005
 -0.13191427  0.04354159  0.08904786 -0.1329849  -0.04505328 -0.11393176
 -0.0279814   0.00047462  0.07631807  0.11225373  0.01046998  0.05031665
  0.10755307  0.1539962   0.02962698 -0.07606979  0.11756754 -0.02202986
 -0.12770101 -0.01797539  0.0473921   0.04640079 -0.06065458 -0.02088461
  0.13128047 -0.10999287 -0.0978575  -0.02972815  0.09172654 -0.074031
  0.06249605 -0.06953321  0.01747742  0.01112229  0.09342834  0.07403291
  0.06450906  0.13948116  0.10609384 -0.02454626  0.02464469 -0.11472534
 -0.01722551 -0.06607996 -0.0077094   0.08112849  0.08381282 -0.02935051
 -0.07271899  0.12022007  0.09826916  0.03448394  0.07965763 -0.04341128
 -0.01576616 -0.12482535 -0.09927925  0.1363426   0.07617158 -0.11942812
 -0.02922926  0.07596572  0.1251488  -0.06922382  0.1153677  -0.1233329
  0.04412308 -0.12413538 -0.00873745 -0.09279221  0.03453922  0.00999516
  0.05902142 -0.05706649 -0.05040285  0.03807412  0.00759711 -0.00961936
  0.03064096  0.05253915 -0.13828097  0.0515334   0.09931973  0.10882059
 -0.09735343 -0.02675722 -0.1229604  -0.0126247   0.02838255  0.01063619
  0.06502798  0.01450445  0.06345817  0.030989  ]
[ 0.07432276  0.0770412   0.1061929   0.03404894 -0.02656456  0.02000816
 -0.12439272  0.09902953 -0.03065103 -0.01753659 -0.0608352  -0.00933329
  0.12782544  0.06909257 -0.05481818  0.01508425  0.10065153 -0.03830468
  0.03094129 -0.0482793  -0.09462922 -0.09664013 -0.03045132 -0.1089877
  0.01540724  0.0602429   0.14248891 -0.09761033  0.03104138 -0.03326787
  0.12389658 -0.09769791 -0.10032061 -0.14249992 -0.02864088 -0.10438449
  0.11199081 -0.09121008  0.07944743 -0.12306429 -0.08750708 -0.07008237
 -0.00271686 -0.06359489 -0.07595529 -0.06325584  0.01807088 -0.03862781
  0.06012784  0.07689986 -0.11461458 -0.04225323  0.15907235  0.13252689
 -0.01285636  0.00922749 -0.02975446 -0.13747855  0.0862895  -0.12541388
 -0.09504822 -0.05492917  0.00241713  0.04829433  0.10179757  0.09527839
 -0.0228323  -0.1202792   0.01693382  0.08279936  0.1144212  -0.07200649
 -0.09343505 -0.15119308 -0.04012269  0.12544775  0.05637704  0.13171911
  0.10753224 -0.03011639  0.0414302  -0.05752329 -0.05495978 -0.00653037
  0.05376532  0.00208798  0.03656624 -0.11397819 -0.08259812 -0.04380522
  0.06886365  0.12869647 -0.11588202  0.05014805  0.00155655 -0.05572474
  0.10831741 -0.06336278 -0.04530567  0.04841067]
[ 0.03866736  0.05837382  0.1314681   0.09603326 -0.00449096  0.11041971
 -0.1016421  -0.02859827 -0.02801652  0.06770828  0.07543235 -0.0984741
 -0.08293187 -0.06792826 -0.06446189  0.08322839  0.0266323  -0.01622361
  0.06039844  0.09642379  0.04409105 -0.11133136  0.04025008 -0.06564895
 -0.10258707  0.10301019  0.10565945  0.01760505 -0.13032232 -0.12147319
 -0.05091247  0.02824235  0.12740794  0.02557842  0.04183252 -0.04659535
 -0.09943758 -0.07997955 -0.11952909  0.09510854 -0.04184793  0.01852633
  0.13439903  0.08260117 -0.03586816  0.06093178 -0.03280612 -0.07231358
  0.12362728  0.10665202  0.0692376  -0.11779851 -0.03632592  0.07400342
  0.08507213  0.00850694 -0.03623456  0.02125765 -0.13293701 -0.04034378
 -0.0176766  -0.0652457   0.05198476  0.11504734 -0.03714296 -0.05270845
  0.11118831 -0.1344671   0.11994999 -0.01021904 -0.11430211  0.12917268
 -0.11601114  0.10067435  0.02658715 -0.01693488  0.08198421 -0.02954258
  0.12177416  0.07277379 -0.12228104  0.0536076   0.11854898  0.14221306
 -0.05997913 -0.1049827   0.03480549  0.0790133  -0.00946742 -0.10653837
 -0.13584775  0.11191939 -0.0500003   0.0593437   0.09367249 -0.00036178
 -0.00316525  0.13765194 -0.09190906  0.02330552]
[-0.12230303 -0.13389379 -0.10994653 -0.00495304  0.07597472 -0.09994078
  0.03727714  0.1170479   0.08218171 -0.02218878 -0.08586386  0.07279871
  0.01179932  0.06939979 -0.12150489  0.06464139  0.13988179  0.01704591
  0.11913313 -0.03680456 -0.12765236 -0.07273441 -0.08202025  0.02036896
  0.01822616  0.05364188  0.03172458 -0.09787924 -0.14458397 -0.03120465
  0.08656567 -0.10129439 -0.11079569  0.09214868 -0.12148643 -0.01883584
  0.02149676  0.13201424 -0.14061217  0.13891973  0.00054839 -0.10208341
  0.05150966 -0.06567472  0.10566302  0.04704679 -0.11867303 -0.02475443
 -0.00098692 -0.12437277 -0.1169359   0.12787661  0.11231477 -0.08773934
 -0.09074504  0.09080955  0.11068632 -0.02673645 -0.06582524  0.07626592
 -0.13161555 -0.07714465  0.07335223  0.00104281 -0.12133747 -0.12918605
  0.15370414  0.07240108  0.13490169  0.03522833 -0.0210071   0.1351576
 -0.00929241  0.12287443 -0.1241722  -0.01432526  0.08145519  0.04446476
  0.09666495 -0.13656476 -0.0578438   0.09054207 -0.03804043  0.07959829
 -0.1340945  -0.0011201   0.09931991  0.12823516 -0.03658166  0.08304214
 -0.09449612  0.02388009 -0.04790502  0.12774503  0.05271363 -0.12905394
  0.00829064 -0.03772108  0.10799108  0.02763479]
[ 1.28531486e-01  8.62714499e-02  8.01523551e-02 -6.49287254e-02
 -1.07664570e-01  2.35799439e-02  1.18272647e-01  1.86505746e-02
 -3.55013018e-03 -9.16281566e-02 -2.63095330e-02 -7.24747032e-02
 -2.79714353e-02 -5.00963554e-02  4.65719216e-02 -1.85545627e-03
  1.14918664e-01  9.03910324e-02  1.09665282e-01 -4.94214036e-02
 -5.71327843e-02  8.87550265e-02  1.47629762e-03 -2.03001145e-02
 -1.39382184e-01 -8.17353874e-02 -5.42398207e-02  5.50118499e-02
 -1.09935939e-01 -1.23622909e-01 -6.80057257e-02  4.39221673e-02
 -1.41824022e-01 -1.34242594e-01  3.24416049e-02  2.08678306e-03
  4.77725714e-02  3.53266336e-02  6.40905201e-02 -1.22570448e-01
 -8.09562802e-02  5.34174666e-02 -1.86199155e-02  1.20181277e-01
 -3.91482405e-04  9.93618593e-02 -8.49243347e-03 -1.39077455e-01
 -6.96955547e-02 -1.71320289e-02 -4.75660153e-02  1.04069628e-01
  9.85608529e-03 -8.41565952e-02 -4.86093126e-02  1.22124955e-01
  6.90926760e-02  6.40545115e-02  5.49796559e-02  1.14151925e-01
  8.32056254e-02 -5.34553677e-02  1.11710258e-01  4.05716617e-03
  1.37633920e-01 -5.90202548e-02  1.08675204e-01 -3.27819660e-02
  7.58598819e-02  1.35878459e-01  3.26932222e-02 -9.69835073e-02
 -3.82271446e-02  6.38012737e-02  2.47517508e-02  5.68488799e-02
  1.88686326e-02 -1.19642995e-01 -1.13523394e-01  5.67256436e-02
  1.13726528e-04 -9.37811062e-02  7.07346126e-02  3.36752310e-02
 -2.64242627e-02  5.90183400e-02  9.30840671e-02  1.01084627e-01
 -1.23721473e-01  5.74227646e-02  3.94646972e-02 -7.06756562e-02
 -5.69044687e-02  7.21211135e-02 -1.05505846e-01 -1.61216836e-02
 -7.59126395e-02  8.32003728e-02 -1.35246038e-01 -1.50308581e-02]
[ 0.10448036  0.09014817  0.08302171 -0.03433892 -0.13089447  0.03766594
  0.06574592 -0.05233923  0.03368011 -0.09156863  0.1227698   0.13339667
 -0.00388124  0.01390241  0.01250758 -0.05668522  0.11178812 -0.01967168
  0.09614686  0.01739071 -0.04055154 -0.04093735 -0.07498702 -0.04229126
 -0.00887621  0.00845079  0.05447512 -0.00308662  0.07190322 -0.01209145
  0.13886367 -0.08568814  0.0939165   0.11752193  0.10745667 -0.03366417
 -0.03628958  0.04181179  0.07885773  0.00202415 -0.1138132  -0.00787107
  0.0337206  -0.01874813 -0.10493972 -0.10640535  0.09338421 -0.1211363
 -0.11062008 -0.11038145  0.05603678  0.13527925  0.07180715 -0.02370637
 -0.07689317 -0.10180481 -0.02903706 -0.07085691  0.03036265 -0.10243494
  0.05247257 -0.1047062  -0.03664447 -0.09023435 -0.07104462 -0.01434687
 -0.02967351 -0.09987208 -0.1318403   0.08979773 -0.1100651   0.06488635
  0.14317773  0.08498458 -0.03533581  0.02949998 -0.08647883 -0.00945664
 -0.06063233  0.04215319  0.08772306  0.10277072  0.13592002 -0.09865627
 -0.05390084  0.11194054 -0.12659565  0.04160683 -0.13220686 -0.01274298
  0.12407576 -0.0268904   0.08324735  0.12493142  0.07216387  0.02194419
  0.07569709  0.05119652 -0.09516717 -0.09580742]
[-0.05056418 -0.13257262  0.10507347  0.10123936  0.11081083 -0.09697936
  0.09332282 -0.10618228  0.02149073 -0.01046973  0.03748696 -0.06099871
  0.02443679 -0.04328088 -0.13079417  0.00170609 -0.034941   -0.07472878
  0.05655814 -0.09778443  0.09332696  0.04955154 -0.0395134  -0.01708826
  0.13232175  0.04590984 -0.08573344  0.03588088 -0.03366013  0.01351765
  0.04571233 -0.12977366  0.13221343 -0.0927965   0.10067911 -0.04854048
 -0.05652442  0.08226421 -0.1280495  -0.00091465 -0.04929098 -0.06810724
  0.04230625 -0.09298571  0.00448379 -0.03452357 -0.02283541  0.07560559
  0.06512969 -0.07133265  0.09970972 -0.01756507  0.13420178  0.1176542
 -0.05682563 -0.08142563 -0.0946653  -0.12337971 -0.12425428  0.09860359
 -0.07850423  0.00418969  0.01894819 -0.08850644  0.1072888   0.11892893
  0.07077564  0.02717623  0.02906227 -0.10967161  0.0381036  -0.08528364
 -0.05296572  0.07011583 -0.02906316  0.00924996  0.02184864 -0.04949081
 -0.02169541 -0.00480151 -0.03855014 -0.11622075  0.07685601  0.03884764
 -0.03812009  0.13911818  0.0103557   0.129806    0.01761003  0.08810514
 -0.06758587  0.07123213 -0.04248181 -0.1327223  -0.09477814  0.11608441
 -0.09162143 -0.1083274  -0.04879878 -0.03435375]
[ 0.10501041  0.01080616  0.06937328  0.13961361 -0.128272   -0.06655428
 -0.12702602 -0.05871809  0.06737305 -0.12867284 -0.07261763  0.04740683
  0.00417132  0.15760331  0.0859488  -0.10503788 -0.13111125  0.0810895
 -0.12545384  0.07649297  0.07308658  0.12842205  0.02797956  0.00079569
 -0.13028942  0.03862751 -0.0222654   0.08946836  0.05089482 -0.12722996
 -0.05978961 -0.10720097  0.05461063 -0.14649367  0.00447602  0.02773539
  0.06119103  0.11834595 -0.02239411 -0.06564409 -0.09491625 -0.09369739
 -0.11769045 -0.04933092  0.10124262 -0.04185121 -0.0948742  -0.044861
  0.11312924  0.1246518  -0.03615158  0.02381307  0.12985265 -0.02649467
  0.13595872 -0.05111256 -0.12834188 -0.03075518  0.05767488 -0.05329437
  0.07339131 -0.12536275  0.15959804  0.03386576  0.03694958  0.00353326
  0.14691862 -0.06801018  0.1237883   0.10079538  0.03223886 -0.02177162
  0.11280709 -0.10611529 -0.10698687  0.11173978  0.02088074 -0.11246254
  0.08310262 -0.09135427  0.03442331 -0.09121455  0.10632487  0.12834954
 -0.01488689 -0.03813531 -0.00643402 -0.02345117  0.04617869 -0.02969726
 -0.03614709 -0.12788062 -0.13814054  0.11960442 -0.0329917   0.11962505
  0.04258501 -0.13338517 -0.12618753 -0.02013498]
[-0.05981275 -0.04052287  0.07520679  0.11098973 -0.14082204 -0.06972222
  0.05764101 -0.0318114   0.14111316  0.05740004  0.05345119 -0.07697161
 -0.00363475  0.12275399 -0.1340526  -0.06842589 -0.08374842 -0.13224232
 -0.05051232  0.10915584  0.02851806  0.08756498 -0.03391884  0.01300086
  0.05352011  0.14440237  0.11802293  0.10002281 -0.02299308 -0.06161168
 -0.08708899  0.00148857 -0.10686634 -0.06050834  0.03541639  0.10359327
 -0.01289086 -0.13844375  0.05332091  0.00553185 -0.07836789 -0.08946118
 -0.0930216   0.13115935  0.01813563  0.06460624 -0.05373531 -0.07018505
  0.05435923 -0.06686488 -0.01878086  0.06868914 -0.0475007  -0.00841124
  0.079172   -0.13268854 -0.04039351  0.13517869 -0.08603338  0.12114541
  0.03351608 -0.06903654 -0.13448773  0.13173464 -0.02334526 -0.01457305
 -0.08072291  0.06411593 -0.03512282 -0.14123979  0.04010175 -0.05577425
 -0.07707448  0.1137483  -0.01994373 -0.09860203 -0.04226007  0.00228912
 -0.08891678  0.03765763 -0.07222897  0.00823347 -0.12880147 -0.06830189
 -0.04071616  0.04007144  0.07093599  0.06294592 -0.08409245 -0.1432419
  0.04553147 -0.08772256 -0.07378477 -0.00054369  0.16224903  0.05475779
 -0.06694908  0.03663747 -0.10789849 -0.0046142 ]
[-0.09349477  0.13113919  0.13014416  0.13913724 -0.00717567 -0.08003692
  0.00109804 -0.0393067   0.02687392  0.13189754  0.06826389 -0.02034341
 -0.01847637  0.04419561  0.01585562 -0.13679941  0.03783085 -0.06232128
 -0.09385598  0.05096844  0.00714109 -0.0194504  -0.01788302  0.09383089
 -0.05902822  0.13593179 -0.11975823 -0.10529816 -0.05784169  0.0080817
  0.05375827 -0.05239924 -0.09534465 -0.1225779  -0.14607294 -0.02827007
 -0.03701994  0.06367932 -0.13828756 -0.04371957  0.02214535  0.13331695
  0.09038615 -0.0366861  -0.05463702  0.09174655  0.10795914  0.13631938
  0.08265927  0.14008181 -0.03439251  0.09891655  0.1286794   0.05460913
 -0.03224941  0.10814153 -0.13543476 -0.11792908  0.01910449  0.02519276
  0.10104178 -0.00321308  0.00390959 -0.08507822  0.01036105  0.04032784
  0.01693867  0.04214207  0.1369446   0.10492911 -0.02489618 -0.04949477
